<?xml version="1.0"?>
<!--
  Smile detector
  Contributed by Oscar Deniz Suarez
  More information can be found at http://visilab.etsii.uclm.es/personas/oscar/oscar.html

//////////////////////////////////////////////////////////////////////////
| Contributors License Agreement
| IMPORTANT: READ BEFORE DOWNLOADING, COPYING, INSTALLING OR USING.
|   By downloading, copying, installing or using the software you agree
|   to this license.
|   If you do not agree to this license, do not download, install,
|   copy or use the software.
|
| Copyright (c) 2011, Modesto Castrillon-Santana (IUSIANI, Universidad de
| Las Palmas de Gran Canaria, Spain).
|  All rights reserved.
|
| Redistribution and use in source and binary forms, with or without
| modification, are permitted provided that the following conditions are
| met:
|
|    * Redistributions of source code must retain the above copyright
|       notice, this list of conditions and the following disclaimer.
|    * Redistributions in binary form must reproduce the above
|      copyright notice, this list of conditions and the following
|      disclaimer in the documentation and/or other materials provided
|      with the distribution.
|    * The name of Contributor may not used to endorse or promote products
|      derived from this software without specific prior written permission.
|
| THIS SOFTWARE IS PROVIDED BY THE COPYRIGHT HOLDERS AND CONTRIBUTORS
| "AS IS" AND ANY EXPRESS OR IMPLIED WARRANTIES, INCLUDING, BUT NOT
| LIMITED TO, THE IMPLIED WARRANTIES OF MERCHANTABILITY AND FITNESS FOR
| A PARTICULAR PURPOSE ARE DISCLAIMED. IN NO EVENT SHALL THE
| CONTRIBUTORS BE LIABLE FOR ANY DIRECT, INDIRECT, INCIDENTAL, SPECIAL,
| EXEMPLARY, OR CONSEQUENTIAL DAMAGES (INCLUDING, BUT NOT LIMITED TO,
| PROCUREMENT OF SUBSTITUTE GOODS OR SERVICES; LOSS OF USE, DATA, OR
| PROFITS; OR BUSINESS INTERRUPTION) HOWEVER CAUSED AND ON ANY THEORY OF
| LIABILITY, WHETHER IN CONTRACT, STRICT LIABILITY, OR TORT (INCLUDING
| NEGLIGENCE OR OTHERWISE) ARISING IN ANY WAY OUT OF THE USE OF THIS
| SOFTWARE, EVEN IF ADVISED OF THE POSSIBILITY OF SUCH DAMAGE.  Back to
| Top
//////////////////////////////////////////////////////////////////////////

-->
<opencv_storage>
<cascade type_id="opencv-cascade-classifier"><stageType>BOOST</stageType>
  <featureType>HAAR</featureType>
  <height>18</height>
  <width>36</width>
  <stageParams>
    <maxWeakCount>53</maxWeakCount></stageParams>
  <featureParams>
    <maxCatCount>0</maxCatCount></featureParams>
  <stageNum>20</stageNum>
  <stages>
    <_>
      <maxWeakCount>11</maxWeakCount>
      <stageThreshold>-1.2678639888763428e+00</stageThreshold>
      <weakClassifiers>
        <_>
          <internalNodes>
            0 -1 0 -4.8783610691316426e-04</internalNodes>
          <leafValues>
            5.9219348430633545e-01 -4.4163608551025391e-01</leafValues></_>
        <_>
          <internalNodes>
            0 -1 1 -4.2209611274302006e-04</internalNodes>
          <leafValues>
            3.0318650603294373e-01 -3.2912918925285339e-01</leafValues></_>
        <_>
          <internalNodes>
            0 -1 2 -4.9940118333324790e-04</internalNodes>
          <leafValues>
            4.8563310503959656e-01 -4.2923060059547424e-01</leafValues></_>
        <_>
          <internalNodes>
            0 -1 3 3.7289198487997055e-02</internalNodes>
          <leafValues>
            -2.8667300939559937e-01 5.9979999065399170e-01</leafValues></_>
        <_>
          <internalNodes>
            0 -1 4 1.4334049774333835e-03</internalNodes>
          <leafValues>
            -3.4893131256103516e-01 4.0482750535011292e-01</leafValues></_>
        <_>
          <internalNodes>
            0 -1 5 -7.7213020995259285e-03</internalNodes>
          <leafValues>
            7.5714188814163208e-01 -1.2225949764251709e-01</leafValues></_>
        <_>
          <internalNodes>
            0 -1 6 8.1067271530628204e-03</internalNodes>
          <leafValues>
            -1.6657720506191254e-01 7.5096148252487183e-01</leafValues></_>
        <_>
          <internalNodes>
            0dentifier":"Aa1dwlU3uTJiu8FhCzuqIoDEe8uKMR6c1u8e6z9hsVbtv1V3O4undFtVCyyx_iQ4G862a_iW4baBbNHYrl8PIJs"},1563876032896.605,0,{"webSessionId":":7r9wnq:35dg97","userID":"100009989478237","retry":false,"status":1}],["require_cond_exposure_logging",{"identifier":"Aa1dwlU3uTJiu8FhCzuqIoDEe8uKMR6c1u8e6z9hsVbtv1V3O4undFtVCyyx_iQ4G862a_iW4baBbNHYrl8PIJs"},1563876032896.61,0,{"webSessionId":":7r9wnq:35dg97","userID":"100009989478237","retry":false,"status":1}],["require_cond_exposure_logging",{"identifier":"Aa1dwlU3uTJiu8FhCzuqIoDEe8uKMR6c1u8e6z9hsVbtv1V3O4undFtVCyyx_iQ4G862a_iW4baBbNHYrl8PIJs"},1563876032896.615,0,{"webSessionId":":7r9wnq:35dg97","userID":"100009989478237","retry":false,"status":1}],["require_cond_exposure_logging",{"identifier":"Aa1dwlU3uTJiu8FhCzuqIoDEe8uKMR6c1u8e6z9hsVbtv1V3O4undFtVCyyx_iQ4G862a_iW4baBbNHYrl8PIJs"},1563876032896.615,0,{"webSessionId":":7r9wnq:35dg97","userID":"100009989478237","retry":false,"status":1}],["require_cond_exposure_logging",{"identifier":"Aa1dwlU3uTJiu8FhCzuqIoDEe8uKMR6c1u8e6z9hsVbtv1V3O4undFtVCyyx_iQ4G862a_iW4baBbNHYrl8PIJs"},1563876032896.625,0,{"webSessionId":":7r9wnq:35dg97","userID":"100009989478237","retry":false,"status":1}],["require_cond_exposure_logging",{"identifier":"Aa1dwlU3uTJiu8FhCzuqIoDEe8uKMR6c1u8e6z9hsVbtv1V3O4undFtVCyyx_iQ4G862a_iW4baBbNHYrl8PIJs"},1563876032896.625,0,{"webSessionId":":7r9wnq:35dg97","userID":"100009989478237","retry":false,"status":1}],["require_cond_exposure_logging",{"identifier":"Aa1dwlU3uTJiu8FhCzuqIoDEe8uKMR6c1u8e6z9hsVbtv1V3O4undFtVCyyx_iQ4G862a_iW4baBbNHYrl8PIJs"},1563876032896.63,0,{"webSessionId":":7r9wnq:35dg97","userID":"100009989478237","retry":false,"status":1}],["require_cond_exposure_logging",{"identifier":"Aa1dwlU3uTJiu8FhCzuqIoDEe8uKMR6c1u8e6z9hsVbtv1V3O4undFtVCyyx_iQ4G862a_iW4baBbNHYrl8PIJs"},1563876032896.63,0,{"webSessionId":":7r9wnq:35dg97","userID":"100009989478237","retry":false,"status":1}],["require_cond_exposure_logging",{"identifier":"Aa1dwlU3uTJiu8FhCzuqIoDEe8uKMR6c1u8e6z9hsVbtv1V3O4undFtVCyyx_iQ4G862a_iW4baBbNHYrl8PIJs"},1563876032896.64,0,{"webSessionId":":7r9wnq:35dg97","userID":"100009989478237","retry":false,"status":1}],["require_cond_exposure_logging",{"identifier":"Aa1dwlU3uTJiu8FhCzuqIoDEe8uKMR6c1u8e6z9hsVbtv1V3O4undFtVCyyx_iQ4G862a_iW4baBbNHYrl8PIJs"},1563876032896.645,0,{"webSessionId":":7r9wnq:35dg97","userID":"100009989478237","retry":false,"status":1}],["require_cond_exposure_logging",{"identifier":"Aa1dwlU3uTJiu8FhCzuqIoDEe8uKMR6c1u8e6z9hsVbtv1V3O4undFtVCyyx_iQ4G862a_iW4baBbNHYrl8PIJs"},1563876032896.65,0,{"webSessionId":":7r9wnq:35dg97","userID":"100009989478237","retry":false,"status":1}],["require_cond_exposure_logging",{"identifier":"Aa1dwlU3uTJiu8FhCzuqIoDEe8uKMR6c1u8e6z9hsVbtv1V3O4undFtVCyyx_iQ4G862a_iW4baBbNHYrl8PIJs"},1563876032896.65,0,{"webSessionId":":7r9wnq:35dg97","userID":"100009989478237","retry":false,"status":1}],["require_cond_exposure_logging",{"identifier":"Aa1dwlU3uTJiu8FhCzuqIoDEe8uKMR6c1u8e6z9hsVbtv1V3O4undFtVCyyx_iQ4G862a_iW4baBbNHYrl8PIJs"},1563876032896.655,0,{"webSessionId":":7r9wnq:35dg97","userID":"100009989478237","retry":false,"status":1}],["require_cond_exposure_logging",{"identifier":"Aa1dwlU3uTJiu8FhCzuqIoDEe8uKMR6c1u8e6z9hsVbtv1V3O4undFtVCyyx_iQ4G862a_iW4baBbNHYrl8PIJs"},1563876032896.66,0,{"webSessionId":":7r9wnq:35dg97","userID":"100009989478237","retry":false,"status":1}],["require_cond_exposure_logging",{"identifier":"Aa1dwlU3uTJiu8FhCzuqIoDEe8uKMR6c1u8e6z9hsVbtv1V3O4undFtVCyyx_iQ4G862a_iW4baBbNHYrl8PIJs"},1563876032896.665,0,{"webSessionId":":7r9wnq:35dg97","userID":"100009989478237","retry":false,"status":1}],["require_cond_exposure_logging",{"identifier":"Aa1dwlU3uTJiu8FhCzuqIoDEe8uKMR6c1u8e6z9hsVbtv1V3O4undFtVCyyx_iQ4G862a_iW4baBbNHYrl8PIJs"},1563876032896.67,0,{"webSessionId":":7r9wnq:35dg97","userID":"100009989478237","retry":false,"status":1}],["require_cond_exposure_logging",{"identifier":"Aa1dwlU3uTJiu8FhCzuqIoDEe8uKMR6c1u8e6z9hsVbtv1V3O4undFtVCyyx_iQ4G862a_iW4baBbNHYrl8PIJs"},1563876032896.675,0,{"webSessionId":":7r9wnq:35dg97","userID":"100009989478237","retry":false,"status":1}],["require_cond_exposure_logging",{"identifier":"Aa1dwlU3uTJiu8FhCzuqIoDEe8uKMR6c1u8e6z9hsVbtv1V3O4undFtVCyyx_iQ4G862a_iW4baBbNHYrl8PIJs"},1563876032896.675,0,{"webSessionId":":7r9wnq:35dg97","userID":"100009989478237","retry":false,"status":1}],["require_cond_exposure_logging",{"identifier":"Aa1dwlU3uTJiu8FhCzuqIoDEe8uKMR6c1u8e6z9hsVbtv1V3O4undFtVCyyx_iQ4G862a_iW4baBbNHYrl8PIJs"},1563876032896.68,0,{"webSessionId":":7r9wnq:35dg97","userID":"100009989478237","retry":false,"status":1}],["require_cond_exposure_logging",{"identifier":"Aa1dwlU3uTJiu8FhCzuqIoDEe8uKMR6c1u8e6z9hsVbtv1V3O4undFtVCyyx_iQ4G862a_iW4baBbNHYrl8PIJs"},1563876032896.685,0,{"webSessionId":":7r9wnq:35dg97","userID":"100009989478237","retry":false,"status":1}],["require_cond_exposure_logging",{"identifier":"Aa1dwlU3uTJiu8FhCzuqIoDEe8uKMR6c1u8e6z9hsVbtv1V3O4undFtVCyyx_iQ4G862a_iW4baBbNHYrl8PIJs"},1563876032896.69,0,{"webSessionId":":7r9wnq:35dg97","userID":"100009989478237","retry":false,"status":1}],["require_cond_exposure_logging",{"identifier":"Aa1dwlU3uTJiu8FhCzuqIoDEe8uKMR6c1u8e6z9hsVbtv1V3O4undFtVCyyx_iQ4G862a_iW4baBbNHYrl8PIJs"},1563876032896.695,0,{"webSessionId":":7r9wnq:35dg97","userID":"100009989478237","retry":false,"status":1}],["require_cond_exposure_logging",{"identifier":"Aa1dwlU3uTJiu8FhCzuqIoDEe8uKMR6c1u8e6z9hsVbtv1V3O4undFtVCyyx_iQ4G862a_iW4baBbNHYrl8PIJs"},1563876032896.695,0,{"webSessionId":":7r9wnq:35dg97","userID":"100009989478237","retry":false,"status":1}],["require_cond_exposure_logging",{"identifier":"Aa1dwlU3uTJiu8FhCzuqIoDEe8uKMR6c1u8e6z9hsVbtv1V3O4undFtVCyyx_iQ4G862a_iW4baBbNHYrl8PIJs"},1563876032896.705,0,{"webSessionId":":7r9wnq:35dg97","userID":"100009989478237","retry":false,"status":1}],["require_cond_exposure_logging",{"identifier":"Aa1dwlU3uTJiu8FhCzuqIoDEe8uKMR6c1u8e6z9hsVbtv1V3O4undFtVCyyx_iQ4G862a_iW4baBbNHYrl8PIJs"},1563876032896.705,0,{"webSessionId":":7r9wnq:35dg97","userID":"100009989478237","retry":false,"status":1}],["require_cond_exposure_logging",{"identifier":"Aa1dwlU3uTJiu8FhCzuqIoDEe8uKMR6c1u8e6z9hsVbtv1V3O4undFtVCyyx_iQ4G862a_iW4baBbNHYrl8PIJs"},1563876032896.71,0,{"webSessionId":":7r9wnq:35dg97","userID":"100009989478237","retry":false,"status":1}],["require_cond_exposure_logging",{"identifier":"Aa1dwlU3uTJiu8FhCzuqIoDEe8uKMR6c1u8e6z9hsVbtv1V3O4undFtVCyyx_iQ4G862a_iW4baBbNHYrl8PIJs"},1563876032896.715,0,{"webSessionId":":7r9wnq:35dg97","userID":"100009989478237","retry":false,"status":1}],["require_cond_exposure_logging",{"identifier":"Aa1dwlU3uTJiu8FhCzuqIoDEe8uKMR6c1u8e6z9hsVbtv1V3O4undFtVCyyx_iQ4G862a_iW4baBbNHYrl8PIJs"},1563876032896.72,0,{"webSessionId":":7r9wnq:35dg97","userID":"100009989478237","retry":false,"status":1}],["require_cond_exposure_logging",{"identifier":"Aa1dwlU3uTJiu8FhCzuqIoDEe8uKMR6c1u8e6z9hsVbtv1V3O4undFtVCyyx_iQ4G862a_iW4baBbNHYrl8PIJs"},1563876032896.725,0,{"webSessionId":":7r9wnq:35dg97","userID":"100009989478237","retry":false,"status":1}],["require_cond_exposure_logging",{"identifier":"Aa1dwlU3uTJiu8FhCzuqIoDEe8uKMR6c1u8e6z9hsVbtv1V3O4undFtVCyyx_iQ4G862a_iW4baBbNHYrl8PIJs"},1563876032896.99,0,{"webSessionId":":7r9wnq:35dg97","userID":"100009989478237","retry":false,"status":1}],["require_cond_exposure_logging",{"identifier":"Aa1dwlU3uTJiu8FhCzuqIoDEe8uKMR6c1u8e6z9hsVbtv1V3O4undFtVCyyx_iQ4G862a_iW4baBbNHYrl8PIJs"},1563876032897,0,{"webSessionId":":7r9wnq:35dg97","userID":"100009989478237","retry":false,"status":1}],["require_cond_exposure_logging",{"identifier":"Aa1dwlU3uTJiu8FhCzuqIoDEe8uKMR6c1u8e6z9hsVbtv1V3O4undFtVCyyx_iQ4G862a_iW4baBbNHYrl8PIJs"},1563876032897.01,0,{"webSessionId":":7r9wnq:35dg97","userID":"100009989478237","retry":false,"status":1}],["require_cond_exposure_logging",{"identifier":"Aa1dwlU3uTJiu8FhCzuqIoDEe8uKMR6c1u8e6z9hsVbtv1V3O4undFtVCyyx_iQ4G862a_iW4baBbNHYrl8PIJs"},1563876032897.015,0,{"webSessionId":":7r9wnq:35dg97","userID":"100009989478237","retry":false,"status":1}],["require_cond_exposure_logging",{"identifier":"Aa1dwlU3uTJiu8FhCzuqIoDEe8uKMR6c1u8e6z9hsVbtv1V3O4undFtVCyyx_iQ4G862a_iW4baBbNHYrl8PIJs"},1563876032897.02,0,{"webSessionId":":7r9wnq:35dg97","userID":"100009989478237","retry":false,"status":1}],["require_cond_exposure_logging",{"identifier":"Aa1dwlU3uTJiu8FhCzuqIoDEe8uKMR6c1u8e6z9hsVbtv1V3O4undFtVCyyx_iQ4G862a_iW4baBbNHYrl8PIJs"},1563876032897.02,0,{"webSessionId":":7r9wnq:35dg97","userID":"100009989478237","retry":false,"status":1}],["require_cond_exposure_logging",{"identifier":"Aa1dwlU3uTJiu8FhCzuqIoDEe8uKMR6c1u8e6z9hsVbtv1V3O4undFtVCyyx_iQ4G862a_iW4baBbNHYrl8PIJs"},1563876032897.025,0,{"webSessionId":":7r9wnq:35dg97","userID":"100009989478237","retry":false,"status":1}],["require_cond_exposure_logging",{"identifier":"Aa1dwlU3uTJiu8FhCzuqIoDEe8uKMR6c1u8e6z9hsVbtv1V3O4undFtVCyyx_iQ4G862a_iW4baBbNHYrl8PIJs"},1563876032897.03,0,{"webSessionId":":7r9wnq:35dg97","userID":"100009989478237","retry":false,"status":1}],["require_cond_exposure_logging",{"identifier":"Aa1dwlU3uTJiu8FhCzuqIoDEe8uKMR6c1u8e6z9hsVbtv1V3O4undFtVCyyx_iQ4G862a_iW4baBbNHYrl8PIJs"},1563876032897.035,0,{"webSessionId":":7r9wnq:35dg97","userID":"100009989478237","retry":false,"status":1}],["require_cond_exposure_logging",{"identifier":"Aa1dwlU3uTJiu8FhCzuqIoDEe8uKMR6c1u8e6z9hsVbtv1V3O4undFtVCyyx_iQ4G862a_iW4baBbNHYrl8PIJs"},1563876032897.04,0,{"webSessionId":":7r9wnq:35dg97","userID":"100009989478237","retry":false,"status":1}],["require_cond_exposure_logging",{"identifier":"Aa1dwlU3uTJiu8FhCzuqIoDEe8uKMR6c1u8e6z9hsVbtv1V3O4undFtVCyyx_iQ4G862a_iW4baBbNHYrl8PIJs"},1563876032897.045,0,{"webSessionId":":7r9wnq:35dg97","userID":"100009989478237","retry":false,"status":1}],["require_cond_exposure_logging",{"identifier":"Aa1dwlU3uTJiu8FhCzuqIoDEe8uKMR6c1u8e6z9hsVbtv1V3O4undFtVCyyx_iQ4G862a_iW4baBbNHYrl8PIJs"},1563876032897.05,0,{"webSessionId":":7r9wnq:35dg97","userID":"100009989478237","retry":false,"status":1}],["require_cond_exposure_logging",{"identifier":"Aa1dwlU3uTJiu8FhCzuqIoDEe8uKMR6c1u8e6z9hsVbtv1V3O4undFtVCyyx_iQ4G862a_iW4baBbNHYrl8PIJs"},1563876032897.055,0,{"webSessionId":":7r9wnq:35dg97","userID":"100009989478237","retry":false,"status":1}],["require_cond_exposure_logging",{"identifier":"Aa1dwlU3uTJiu8FhCzuqIoDEe8uKMR6c1u8e6z9hsVbtv1V3O4undFtVCyyx_iQ4G862a_iW4baBbNHYrl8PIJs"},1563876032897.055,0,{"webSessionId":":7r9wnq:35dg97","userID":"100009989478237","retry":false,"status":1}],["require_cond_exposure_logging",{"identifier":"Aa1dwlU3uTJiu8FhCzuqIoDEe8uKMR6c1u8e6z9hsVbtv1V3O4undFtVCyyx_iQ4G862a_iW4baBbNHYrl8PIJs"},1563876032897.06,0,{"webSessionId":":7r9wnq:35dg97","userID":"100009989478237","retry":false,"status":1}],["require_cond_exposure_logging",{"identifier":"Aa1dwlU3uTJiu8FhCzuqIoDEe8uKMR6c1u8e6z9hsVbtv1V3O4undFtVCyyx_iQ4G862a_iW4baBbNHYrl8PIJs"},1563876032897.065,0,{"webSessionId":":7r9wnq:35dg97","userID":"100009989478237","retry":false,"status":1}],["require_cond_exposure_logging",{"identifier":"Aa1dwlU3uTJiu8FhCzuqIoDEe8uKMR6c1u8e6z9hsVbtv1V3O4undFtVCyyx_iQ4G862a_iW4baBbNHYrl8PIJs"},1563876032897.07,0,{"webSessionId":":7r9wnq:35dg97","userID":"100009989478237","retry":false,"status":1}],["require_cond_exposure_logging",{"identifier":"Aa1dwlU3uTJiu8FhCzuqIoDEe8uKMR6c1u8e6z9hsVbtv1V3O4undFtVCyyx_iQ4G862a_iW4baBbNHYrl8PIJs"},1563876032897.075,0,{"webSessionId":":7r9wnq:35dg97","userID":"100009989478237","retry":false,"status":1}],["require_cond_exposure_logging",{"identifier":"Aa1dwlU3uTJiu8FhCzuqIoDEe8uKMR6c1u8e6z9hsVbtv1V3O4undFtVCyyx_iQ4G862a_iW4baBbNHYrl8PIJs"},1563876032897.08,0,{"webSessionId":":7r9wnq:35dg97","userID":"100009989478237","retry":false,"status":1}],["require_cond_exposure_logging",{"identifier":"Aa1dwlU3uTJiu8FhCzuqIoDEe8uKMR6c1u8e6z9hsVbtv1V3O4undFtVCyyx_iQ4G862a_iW4baBbNHYrl8PIJs"},1563876032897.08,0,{"webSessionId":":7r9wnq:35dg97","userID":"100009989478237","retry":false,"status":1}],["require_cond_exposure_logging",{"identifier":"Aa1dwlU3uTJiu8FhCzuqIoDEe8uKMR6c1u8e6z9hsVbtv1V3O4undFtVCyyx_iQ4G862a_iW4baBbNHYrl8PIJs"},1563876032897.085,0,{"webSessionId":":7r9wnq:35dg97","userID":"100009989478237","retry":false,"status":1}],["require_cond_exposure_logging",{"identifier":"Aa1dwlU3uTJiu8FhCzuqIoDEe8uKMR6c1u8e6z9hsVbtv1V3O4undFtVCyyx_iQ4G862a_iW4baBbNHYrl8PIJs"},1563876032897.09,0,{"webSessionId":":7r9wnq:35dg97","userID":"100009989478237","retry":false,"status":1}],["require_cond_exposure_logging",{"identifier":"Aa1dwlU3uTJiu8FhCzuqIoDEe8uKMR6c1u8e6z9hsVbtv1V3O4undFtVCyyx_iQ4G862a_iW4baBbNHYrl8PIJs"},1563876032897.095,0,{"webSessionId":":7r9wnq:35dg97","userID":"100009989478237","retry":false,"status":1}],["require_cond_exposure_logging",{"identifier":"Aa1dwlU3uTJiu8FhCzuqIoDEe8uKMR6c1u8e6z9hsVbtv1V3O4undFtVCyyx_iQ4G862a_iW4baBbNHYrl8PIJs"},1563876032897.105,0,{"webSessionId":":7r9wnq:35dg97","userID":"100009989478237","retry":false,"status":1}],["require_cond_exposure_logging",{"identifier":"Aa1dwlU3uTJiu8FhCzuqIoDEe8uKMR6c1u8e6z9hsVbtv1V3O4undFtVCyyx_iQ4G862a_iW4baBbNHYrl8PIJs"},1563876032897.105,0,{"webSessionId":":7r9wnq:35dg97","userID":"100009989478237","retry":false,"status":1}],["require_cond_exposure_logging",{"identifier":"Aa1dwlU3uTJiu8FhCzuqIoDEe8uKMR6c1u8e6z9hsVbtv1V3O4undFtVCyyx_iQ4G862a_iW4baBbNHYrl8PIJs"},1563876032897.11,0,{"webSessionId":":7r9wnq:35dg97","userID":"100009989478237","retry":false,"status":1}],["require_cond_exposure_logging",{"identifier":"Aa1dwlU3uTJiu8FhCzuqIoDEe8uKMR6c1u8e6z9hsVbtv1V3O4undFtVCyyx_iQ4G862a_iW4baBbNHYrl8PIJs"},1563876032897.11,0,{"webSessionId":":7r9wnq:35dg97","userID":"100009989478237","retry":false,"status":1}],["require_cond_exposure_logging",{"identifier":"Aa1dwlU3uTJiu8FhCzuqIoDEe8uKMR6c1u8e6z9hsVbtv1V3O4undFtVCyyx_iQ4G862a_iW4baBbNHYrl8PIJs"},1563876032897.12,0,{"webSessionId":":7r9wnq:35dg97","userID":"100009989478237","retry":false,"status":1}],["require_cond_exposure_logging",{"identifier":"Aa1dwlU3uTJiu8FhCzuqIoDEe8uKMR6c1u8e6z9hsVbtv1V3O4undFtVCyyx_iQ4G862a_iW4baBbNHYrl8PIJs"},1563876032897.12,0,{"webSessionId":":7r9wnq:35dg97","userID":"100009989478237","retry":false,"status":1}],["require_cond_exposure_logging",{"identifier":"Aa1dwlU3uTJiu8FhCzuqIoDEe8uKMR6c1u8e6z9hsVbtv1V3O4undFtVCyyx_iQ4G862a_iW4baBbNHYrl8PIJs"},1563876032897.125,0,{"webSessionId":":7r9wnq:35dg97","userID":"100009989478237","retry":false,"status":1}],["require_cond_exposure_logging",{"identifier":"Aa1dwlU3uTJiu8FhCzuqIoDEe8uKMR6c1u8e6z9hsVbtv1V3O4undFtVCyyx_iQ4G862a_iW4baBbNHYrl8PIJs"},1563876032897.13,0,{"webSessionId":":7r9wnq:35dg97","userID":"100009989478237","retry":false,"status":1}],["require_cond_exposure_logging",{"identifier":"Aa1dwlU3uTJiu8FhCzuqIoDEe8uKMR6c1u8e6z9hsVbtv1V3O4undFtVCyyx_iQ4G862a_iW4baBbNHYrl8PIJs"},1563876032897.135,0,{"webSessionId":":7r9wnq:35dg97","userID":"100009989478237","retry":false,"status":1}],["require_cond_exposure_logging",{"identifier":"Aa1dwlU3uTJiu8FhCzuqIoDEe8uKMR6c1u8e6z9hsVbtv1V3O4undFtVCyyx_iQ4G862a_iW4baBbNHYrl8PIJs"},1563876032897.135,0,{"webSessionId":":7r9wnq:35dg97","userID":"100009989478237","retry":false,"status":1}],["require_cond_exposure_logging",{"identifier":"Aa1dwlU3uTJiu8FhCzuqIoDEe8uKMR6c1u8e6z9hsVbtv1V3O4undFtVCyyx_iQ4G862a_iW4baBbNHYrl8PIJs"},1563876032897.14,0,{"webSessionId":":7r9wnq:35dg97","userID":"100009989478237","retry":false,"status":1}],["require_cond_exposure_logging",{"identifier":"Aa1dwlU3uTJiu8FhCzuqIoDEe8uKMR6c1u8e6z9hsVbtv1V3O4undFtVCyyx_iQ4G862a_iW4baBbNHYrl8PIJs"},1563876032897.145,0,{"webSessionId":":7r9wnq:35dg97","userID":"100009989478237","retry":false,"status":1}],["require_cond_exposure_logging",{"identifier":"Aa1dwlU3uTJiu8FhCzuqIoDEe8uKMR6c1u8e6z9hsVbtv1V3O4undFtVCyyx_iQ4G862a_iW4baBbNHYrl8PIJs"},1563876032897.155,0,{"webSessionId":":7r9wnq:35dg97","userID":"100009989478237","retry":false,"status":1}],["require_cond_exposure_logging",{"identifier":"Aa1dwlU3uTJiu8FhCzuqIoDEe8uKMR6c1u8e6z9hsVbtv1V3O4undFtVCyyx_iQ4G862a_iW4baBbNHYrl8PIJs"},1563876032897.16,0,{"webSessionId":":7r9wnq:35dg97","userID":"100009989478237","retry":false,"status":1}],["require_cond_exposure_logging",{"identifier":"Aa1dwlU3uTJiu8FhCzuqIoDEe8uKMR6c1u8e6z9hsVbtv1V3O4undFtVCyyx_iQ4G862a_iW4baBbNHYrl8PIJs"},1563876032897.16,0,{"webSessionId":":7r9wnq:35dg97","userID":"100009989478237","retry":false,"status":1}],["require_cond_exposure_logging",{"identiÖ@Åç˘fier":"Aa1dwlU3uTJiu8FhCzuqIoDEe8uKMR6c1u8e6z9hsVbtv1V3O4undFtVCyyx_iQ4G862a_iW4baBbNHYrl8PIJs"},1563876032897.16,0,{"webSessionId":":7r9wnq:35dg97","userID":"100009989478237","retry":false,"status":1}],["require_cond_exposure_logging",{"identifier":"Aa1dwlU3uTJiu8FhCzuqIoDEe8uKMR6c1u8e6z9hsVbtv1V3O4undFtVCyyx_iQ4G862a_iW4baBbNHYrl8PIJs"},1563876032897.17,0,{"webSessionId":":7r9wnq:35dg97","userID":"100009989478237","retry":false,"status":1}],["require_cond_exposure_logging",{"identifier":"Aa1dwlU3uTJiu8FhCzuqIoDEe8uKMR6c1u8e6z9hsVbtv1V3O4undFtVCyyx_iQ4G862a_iW4baBbNHYrl8PIJs"},1563876032897.175,0,{"webSessionId":":7r9wnq:35dg97","userID":"100009989478237","retry":false,"status":1}],["require_cond_exposure_logging",{"identifier":"Aa1dwlU3uTJiu8FhCzuqIoDEe8uKMR6c1u8e6z9hsVbtv1V3O4undFtVCyyx_iQ4G862a_iW4baBbNHYrl8PIJs"},1563876032897.18,0,{"webSessionId":":7r9wnq:35dg97","userID":"100009989478237","retry":false,"status":1}],["require_cond_exposure_logging",{"identifier":"Aa1dwlU3uTJiu8FhCzuqIoDEe8uKMR6c1u8e6z9hsVbtv1V3O4undFtVCyyx_iQ4G862a_iW4baBbNHYrl8PIJs"},1563876032897.185,0,{"webSessionId":":7r9wnq:35dg97","userID":"100009989478237","retry":false,"status":1}],["require_cond_exposure_logging",{"identifier":"Aa1dwlU3uTJiu8FhCzuqIoDEe8uKMR6c1u8e6z9hsVbtv1V3O4undFtVCyyx_iQ4G862a_iW4baBbNHYrl8PIJs"},1563876032897.185,0,{"webSessionId":":7r9wnq:35dg97","userID":"100009989478237","retry":false,"status":1}],["require_cond_exposure_logging",{"identifier":"Aa1dwlU3uTJiu8FhCzuqIoDEe8uKMR6c1u8e6z9hsVbtv1V3O4undFtVCyyx_iQ4G862a_iW4baBbNHYrl8PIJs"},1563876032897.195,0,{"webSessionId":":7r9wnq:35dg97","userID":"100009989478237","retry":false,"status":1}],["require_cond_exposure_logging",{"identifier":"Aa1dwlU3uTJiu8FhCzuqIoDEe8uKMR6c1u8e6z9hsVbtv1V3O4undFtVCyyx_iQ4G862a_iW4baBbNHYrl8PIJs"},1563876032897.195,0,{"webSessionId":":7r9wnq:35dg97","userID":"100009989478237","retry":false,"status":1}],["require_cond_exposure_logging",{"identifier":"Aa1dwlU3uTJiu8FhCzuqIoDEe8uKMR6c1u8e6z9hsVbtv1V3O4undFtVCyyx_iQ4G862a_iW4baBbNHYrl8PIJs"},1563876032897.2,0,{"webSessionId":":7r9wnq:35dg97","userID":"100009989478237","retry":false,"status":1}],["require_cond_exposure_logging",{"identifier":"Aa1dwlU3uTJiu8FhCzuqIoDEe8uKMR6c1u8e6z9hsVbtv1V3O4undFtVCyyx_iQ4G862a_iW4baBbNHYrl8PIJs"},1563876032897.205,0,{"webSessionId":":7r9wnq:35dg97","userID":"100009989478237","retry":false,"status":1}],["require_cond_exposure_logging",{"identifier":"Aa1dwlU3uTJiu8FhCzuqIoDEe8uKMR6c1u8e6z9hsVbtv1V3O4undFtVCyyx_iQ4G862a_iW4baBbNHYrl8PIJs"},1563876032897.21,0,{"webSessionId":":7r9wnq:35dg97","userID":"100009989478237","retry":false,"status":1}],["require_cond_exposure_logging",{"identifier":"Aa1dwlU3uTJiu8FhCzuqIoDEe8uKMR6c1u8e6z9hsVbtv1V3O4undFtVCyyx_iQ4G862a_iW4baBbNHYrl8PIJs"},1563876032897.215,0,{"webSessionId":":7r9wnq:35dg97","userID":"100009989478237","retry":false,"status":1}],["require_cond_exposure_logging",{"identifier":"Aa1dwlU3uTJiu8FhCzuqIoDEe8uKMR6c1u8e6z9hsVbtv1V3O4undFtVCyyx_iQ4G862a_iW4baBbNHYrl8PIJs"},1563876032897.22,0,{"webSessionId":":7r9wnq:35dg97","userID":"100009989478237","retry":false,"status":1}],["require_cond_exposure_logging",{"identifier":"Aa1dwlU3uTJiu8FhCzuqIoDEe8uKMR6c1u8e6z9hsVbtv1V3O4undFtVCyyx_iQ4G862a_iW4baBbNHYrl8PIJs"},1563876032897.225,0,{"webSessionId":":7r9wnq:35dg97","userID":"100009989478237","retry":false,"status":1}],["require_cond_exposure_logging",{"identifier":"Aa1dwlU3uTJiu8FhCzuqIoDEe8uKMR6c1u8e6z9hsVbtv1V3O4undFtVCyyx_iQ4G862a_iW4baBbNHYrl8PIJs"},1563876032897.225,0,{"webSessionId":":7r9wnq:35dg97","userID":"100009989478237","retry":false,"status":1}],["require_cond_exposure_logging",{"identifier":"Aa1dwlU3uTJiu8FhCzuqIoDEe8uKMR6c1u8e6z9hsVbtv1V3O4undFtVCyyx_iQ4G862a_iW4baBbNHYrl8PIJs"},1563876032897.235,0,{"webSessionId":":7r9wnq:35dg97","userID":"100009989478237","retry":false,"status":1}],["require_cond_exposure_logging",{"identifier":"Aa1dwlU3uTJiu8FhCzuqIoDEe8uKMR6c1u8e6z9hsVbtv1V3O4undFtVCyyx_iQ4G862a_iW4baBbNHYrl8PIJs"},1563876032897.24,0,{"webSessionId":":7r9wnq:35dg97","userID":"100009989478237","retry":false,"status":1}],["require_cond_exposure_logging",{"identifier":"Aa1dwlU3uTJiu8FhCzuqIoDEe8uKMR6c1u8e6z9hsVbtv1V3O4undFtVCyyx_iQ4G862a_iW4baBbNHYrl8PIJs"},1563876032897.24,0,{"webSessionId":":7r9wnq:35dg97","userID":"100009989478237","retry":false,"status":1}],["require_cond_exposure_logging",{"identifier":"Aa1dwlU3uTJiu8FhCzuqIoDEe8uKMR6c1u8e6z9hsVbtv1V3O4undFtVCyyx_iQ4G862a_iW4baBbNHYrl8PIJs"},1563876032897.245,0,{"webSessionId":":7r9wnq:35dg97","userID":"100009989478237","retry":false,"status":1}],["require_cond_exposure_logging",{"identifier":"Aa1dwlU3uTJiu8FhCzuqIoDEe8uKMR6c1u8e6z9hsVbtv1V3O4undFtVCyyx_iQ4G862a_iW4baBbNHYrl8PIJs"},1563876032897.25,0,{"webSessionId":":7r9wnq:35dg97","userID":"100009989478237","retry":false,"status":1}],["require_cond_exposure_logging",{"identifier":"Aa1dwlU3uTJiu8FhCzuqIoDEe8uKMR6c1u8e6z9hsVbtv1V3O4undFtVCyyx_iQ4G862a_iW4baBbNHYrl8PIJs"},1563876032897.25,0,{"webSessionId":":7r9wnq:35dg97","userID":"100009989478237","retry":false,"status":1}],["require_cond_exposure_logging",{"identifier":"Aa1dwlU3uTJiu8FhCzuqIoDEe8uKMR6c1u8e6z9hsVbtv1V3O4undFtVCyyx_iQ4G862a_iW4baBbNHYrl8PIJs"},1563876032897.26,0,{"webSessionId":":7r9wnq:35dg97","userID":"100009989478237","retry":false,"status":1}],["require_cond_exposure_logging",{"identifier":"Aa1dwlU3uTJiu8FhCzuqIoDEe8uKMR6c1u8e6z9hsVbtv1V3O4undFtVCyyx_iQ4G862a_iW4baBbNHYrl8PIJs"},1563876032898.235,0,{"webSessionId":":7r9wnq:35dg97","userID":"100009989478237","retry":false,"status":1}],["require_cond_exposure_logging",{"identifier":"Aa1dwlU3uTJiu8FhCzuqIoDEe8uKMR6c1u8e6z9hsVbtv1V3O4undFtVCyyx_iQ4G862a_iW4baBbNHYrl8PIJs"},1563876032898.25,0,{"webSessionId":":7r9wnq:35dg97","userID":"100009989478237","retry":false,"status":1}],["require_cond_exposure_logging",{"identifier":"Aa1dwlU3uTJiu8FhCzuqIoDEe8uKMR6c1u8e6z9hsVbtv1V3O4undFtVCyyx_iQ4G862a_iW4baBbNHYrl8PIJs"},1563876032898.27,0,{"webSessionId":":7r9wnq:35dg97","userID":"100009989478237","retry":false,"status":1}],["require_cond_exposure_logging",{"identifier":"Aa1dwlU3uTJiu8FhCzuqIoDEe8uKMR6c1u8e6z9hsVbtv1V3O4undFtVCyyx_iQ4G862a_iW4baBbNHYrl8PIJs"},1563876032898.275,0,{"webSessionId":":7r9wnq:35dg97","userID":"100009989478237","retry":false,"status":1}],["require_cond_exposure_logging",{"identifier":"Aa1dwlU3uTJiu8FhCzuqIoDEe8uKMR6c1u8e6z9hsVbtv1V3O4undFtVCyyx_iQ4G862a_iW4baBbNHYrl8PIJs"},1563876032898.28,0,{"webSessionId":":7r9wnq:35dg97","userID":"100009989478237","retry":false,"status":1}],["require_cond_exposure_logging",{"identifier":"Aa1dwlU3uTJiu8FhCzuqIoDEe8uKMR6c1u8e6z9hsVbtv1V3O4undFtVCyyx_iQ4G862a_iW4baBbNHYrl8PIJs"},1563876032898.285,0,{"webSessionId":":7r9wnq:35dg97","userID":"100009989478237","retry":false,"status":1}],["require_cond_exposure_logging",{"identifier":"Aa1dwlU3uTJiu8FhCzuqIoDEe8uKMR6c1u8e6z9hsVbtv1V3O4undFtVCyyx_iQ4G862a_iW4baBbNHYrl8PIJs"},1563876032898.3,0,{"webSessionId":":7r9wnq:35dg97","userID":"100009989478237","retry":false,"status":1}],["require_cond_exposure_logging",{"identifier":"Aa1dwlU3uTJiu8FhCzuqIoDEe8uKMR6c1u8e6z9hsVbtv1V3O4undFtVCyyx_iQ4G862a_iW4baBbNHYrl8PIJs"},1563876032898.305,0,{"webSessionId":":7r9wnq:35dg97","userID":"100009989478237","retry":false,"status":1}],["require_cond_exposure_logging",{"identifier":"Aa1dwlU3uTJiu8FhCzuqIoDEe8uKMR6c1u8e6z9hsVbtv1V3O4undFtVCyyx_iQ4G862a_iW4baBbNHYrl8PIJs"},1563876032898.31,0,{"webSessionId":":7r9wnq:35dg97","userID":"100009989478237","retry":false,"status":1}],["require_cond_exposure_logging",{"identifier":"Aa1dwlU3uTJiu8FhCzuqIoDEe8uKMR6c1u8e6z9hsVbtv1V3O4undFtVCyyx_iQ4G862a_iW4baBbNHYrl8PIJs"},1563876032898.315,0,{"webSessionId":":7r9wnq:35dg97","userID":"100009989478237","retry":false,"status":1}],["require_cond_exposure_logging",{"identifier":"Aa1dwlU3uTJiu8FhCzuqIoDEe8uKMR6c1u8e6z9hsVbtv1V3O4undFtVCyyx_iQ4G862a_iW4baBbNHYrl8PIJs"},1563876032898.32,0,{"webSessionId":":7r9wnq:35dg97","userID":"100009989478237","retry":false,"status":1}],["require_cond_exposure_logging",{"identifier":"Aa1dwlU3uTJiu8FhCzuqIoDEe8uKMR6c1u8e6z9hsVbtv1V3O4undFtVCyyx_iQ4G862a_iW4baBbNHYrl8PIJs"},1563876032898.32,0,{"webSessionId":":7r9wnq:35dg97","userID":"100009989478237","retry":false,"status":1}],["require_cond_exposure_logging",{"identifier":"Aa1dwlU3uTJiu8FhCzuqIoDEe8uKMR6c1u8e6z9hsVbtv1V3O4undFtVCyyx_iQ4G862a_iW4baBbNHYrl8PIJs"},1563876032898.34,0,{"webSessionId":":7r9wnq:35dg97","userID":"100009989478237","retry":false,"status":1}],["require_cond_exposure_logging",{"identifier":"Aa1dwlU3uTJiu8FhCzuqIoDEe8uKMR6c1u8e6z9hsVbtv1V3O4undFtVCyyx_iQ4G862a_iW4baBbNHYrl8PIJs"},1563876032898.34,0,{"webSessionId":":7r9wnq:35dg97","userID":"100009989478237","retry":false,"status":1}],["require_cond_exposure_logging",{"identifier":"Aa1dwlU3uTJiu8FhCzuqIoDEe8uKMR6c1u8e6z9hsVbtv1V3O4undFtVCyyx_iQ4G862a_iW4baBbNHYrl8PIJs"},1563876032898.35,0,{"webSessionId":":7r9wnq:35dg97","userID":"100009989478237","retry":false,"status":1}],["require_cond_exposure_logging",{"identifier":"Aa1dwlU3uTJiu8FhCzuqIoDEe8uKMR6c1u8e6z9hsVbtv1V3O4undFtVCyyx_iQ4G862a_iW4baBbNHYrl8PIJs"},1563876032898.355,0,{"webSessionId":":7r9wnq:35dg97","userID":"100009989478237","retry":false,"status":1}],["require_cond_exposure_logging",{"identifier":"Aa1dwlU3uTJiu8FhCzuqIoDEe8uKMR6c1u8e6z9hsVbtv1V3O4undFtVCyyx_iQ4G862a_iW4baBbNHYrl8PIJs"},1563876032898.355,0,{"webSessionId":":7r9wnq:35dg97","userID":"100009989478237","retry":false,"status":1}],["require_cond_exposure_logging",{"identifier":"Aa1dwlU3uTJiu8FhCzuqIoDEe8uKMR6c1u8e6z9hsVbtv1V3O4undFtVCyyx_iQ4G862a_iW4baBbNHYrl8PIJs"},1563876032898.44,0,{"webSessionId":":7r9wnq:35dg97","userID":"100009989478237","retry":false,"status":1}],["require_cond_exposure_logging",{"identifier":"Aa1dwlU3uTJiu8FhCzuqIoDEe8uKMR6c1u8e6z9hsVbtv1V3O4undFtVCyyx_iQ4G862a_iW4baBbNHYrl8PIJs"},1563876032898.445,0,{"webSessionId":":7r9wnq:35dg97","userID":"100009989478237","retry":false,"status":1}],["require_cond_exposure_logging",{"identifier":"Aa1dwlU3uTJiu8FhCzuqIoDEe8uKMR6c1u8e6z9hsVbtv1V3O4undFtVCyyx_iQ4G862a_iW4baBbNHYrl8PIJs"},1563876032898.45,0,{"webSessionId":":7r9wnq:35dg97","userID":"100009989478237","retry":false,"status":1}],["require_cond_exposure_logging",{"identifier":"Aa1dwlU3uTJiu8FhCzuqIoDEe8uKMR6c1u8e6z9hsVbtv1V3O4undFtVCyyx_iQ4G862a_iW4baBbNHYrl8PIJs"},1563876032898.45,0,{"webSessionId":":7r9wnq:35dg97","userID":"100009989478237","retry":false,"status":1}],["require_cond_exposure_logging",{"identifier":"Aa1dwlU3uTJiu8FhCzuqIoDEe8uKMR6c1u8e6z9hsVbtv1V3O4undFtVCyyx_iQ4G862a_iW4baBbNHYrl8PIJs"},1563876032898.455,0,{"webSessionId":":7r9wnq:35dg97","userID":"100009989478237","retry":false,"status":1}],["require_cond_exposure_logging",{"identifier":"Aa1dwlU3uTJiu8FhCzuqIoDEe8uKMR6c1u8e6z9hsVbtv1V3O4undFtVCyyx_iQ4G862a_iW4baBbNHYrl8PIJs"},1563876032898.46,0,{"webSessionId":":7r9wnq:35dg97","userID":"100009989478237","retry":false,"status":1}],["require_cond_exposure_logging",{"identifier":"Aa1dwlU3uTJiu8FhCzuqIoDEe8uKMR6c1u8e6z9hsVbtv1V3O4undFtVCyyx_iQ4G862a_iW4baBbNHYrl8PIJs"},1563876032898.465,0,{"webSessionId":":7r9wnq:35dg97","userID":"100009989478237","retry":false,"status":1}],["require_cond_exposure_logging",{"identifier":"Aa1dwlU3uTJiu8FhCzuqIoDEe8uKMR6c1u8e6z9hsVbtv1V3O4undFtVCyyx_iQ4G862a_iW4baBbNHYrl8PIJs"},1563876032898.47,0,{"webSessionId":":7r9wnq:35dg97","userID":"100009989478237","retry":false,"status":1}],["require_cond_exposure_logging",{"identifier":"Aa1dwlU3uTJiu8FhCzuqIoDEe8uKMR6c1u8e6z9hsVbtv1V3O4undFtVCyyx_iQ4G862a_iW4baBbNHYrl8PIJs"},1563876032898.475,0,{"webSessionId":":7r9wnq:35dg97","userID":"100009989478237","retry":false,"status":1}],["require_cond_exposure_logging",{"identifier":"Aa1dwlU3uTJiu8FhCzuqIoDEe8uKMR6c1u8e6z9hsVbtv1V3O4undFtVCyyx_iQ4G862a_iW4baBbNHYrl8PIJs"},1563876032898.475,0,{"webSessionId":":7r9wnq:35dg97","userID":"100009989478237","retry":false,"status":1}],["require_cond_exposure_logging",{"identifier":"Aa1dwlU3uTJiu8FhCzuqIoDEe8uKMR6c1u8e6z9hsVbtv1V3O4undFtVCyyx_iQ4G862a_iW4baBbNHYrl8PIJs"},1563876032898.485,0,{"webSessionId":":7r9wnq:35dg97","userID":"100009989478237","retry":false,"status":1}],["require_cond_exposure_logging",{"identifier":"Aa1dwlU3uTJiu8FhCzuqIoDEe8uKMR6c1u8e6z9hsVbtv1V3O4undFtVCyyx_iQ4G862a_iW4baBbNHYrl8PIJs"},1563876032898.485,0,{"webSessionId":":7r9wnq:35dg97","userID":"100009989478237","retry":false,"status":1}],["require_cond_exposure_logging",{"identifier":"Aa1dwlU3uTJiu8FhCzuqIoDEe8uKMR6c1u8e6z9hsVbtv1V3O4undFtVCyyx_iQ4G862a_iW4baBbNHYrl8PIJs"},1563876032898.49,0,{"webSessionId":":7r9wnq:35dg97","userID":"100009989478237","retry":false,"status":1}],["require_cond_exposure_logging",{"identifier":"Aa1dwlU3uTJiu8FhCzuqIoDEe8uKMR6c1u8e6z9hsVbtv1V3O4undFtVCyyx_iQ4G862a_iW4baBbNHYrl8PIJs"},1563876032898.495,0,{"webSessionId":":7r9wnq:35dg97","userID":"100009989478237","retry":false,"status":1}],["require_cond_exposure_logging",{"identifier":"Aa1dwlU3uTJiu8FhCzuqIoDEe8uKMR6c1u8e6z9hsVbtv1V3O4undFtVCyyx_iQ4G862a_iW4baBbNHYrl8PIJs"},1563876032898.5,0,{"webSessionId":":7r9wnq:35dg97","userID":"100009989478237","retry":false,"status":1}],["require_cond_exposure_logging",{"identifier":"Aa1dwlU3uTJiu8FhCzuqIoDEe8uKMR6c1u8e6z9hsVbtv1V3O4undFtVCyyx_iQ4G862a_iW4baBbNHYrl8PIJs"},1563876032898.505,0,{"webSessionId":":7r9wnq:35dg97","userID":"100009989478237","retry":false,"status":1}],["require_cond_exposure_logging",{"identifier":"Aa1dwlU3uTJiu8FhCzuqIoDEe8uKMR6c1u8e6z9hsVbtv1V3O4undFtVCyyx_iQ4G862a_iW4baBbNHYrl8PIJs"},1563876032898.51,0,{"webSessionId":":7r9wnq:35dg97","userID":"100009989478237","retry":false,"status":1}],["require_cond_exposure_logging",{"identifier":"Aa1dwlU3uTJiu8FhCzuqIoDEe8uKMR6c1u8e6z9hsVbtv1V3O4undFtVCyyx_iQ4G862a_iW4baBbNHYrl8PIJs"},1563876032898.51,0,{"webSessionId":":7r9wnq:35dg97","userID":"100009989478237","retry":false,"status":1}],["require_cond_exposure_logging",{"identifier":"Aa1dwlU3uTJiu8FhCzuqIoDEe8uKMR6c1u8e6z9hsVbtv1V3O4undFtVCyyx_iQ4G862a_iW4baBbNHYrl8PIJs"},1563876032898.51,0,{"webSessionId":":7r9wnq:35dg97","userID":"100009989478237","retry":false,"status":1}],["require_cond_exposure_logging",{"identifier":"Aa1dwlU3uTJiu8FhCzuqIoDEe8uKMR6c1u8e6z9hsVbtv1V3O4undFtVCyyx_iQ4G862a_iW4baBbNHYrl8PIJs"},1563876032898.515,0,{"webSessionId":":7r9wnq:35dg97","userID":"100009989478237","retry":false,"status":1}],["require_cond_exposure_logging",{"identifier":"Aa1dwlU3uTJiu8FhCzuqIoDEe8uKMR6c1u8e6z9hsVbtv1V3O4undFtVCyyx_iQ4G862a_iW4baBbNHYrl8PIJs"},1563876032898.525,0,{"webSessionId":":7r9wnq:35dg97","userID":"100009989478237","retry":false,"status":1}],["require_cond_exposure_logging",{"identifier":"Aa1dwlU3uTJiu8FhCzuqIoDEe8uKMR6c1u8e6z9hsVbtv1V3O4undFtVCyyx_iQ4G862a_iW4baBbNHYrl8PIJs"},1563876032898.525,0,{"webSessionId":":7r9wnq:35dg97","userID":"100009989478237","retry":false,"status":1}],["require_cond_exposure_logging",{"identifier":"Aa1dwlU3uTJiu8FhCzuqIoDEe8uKMR6c1u8e6z9hsVbtv1V3O4undFtVCyyx_iQ4G862a_iW4baBbNHYrl8PIJs"},1563876032898.53,0,{"webSessionId":":7r9wnq:35dg97","userID":"100009989478237","retry":false,"status":1}],["require_cond_exposure_logging",{"identifier":"Aa1dwlU3uTJiu8FhCzuqIoDEe8uKMR6c1u8e6z9hsVbtv1V3O4undFtVCyyx_iQ4G862a_iW4baBbNHYrl8PIJs"},1563876032898.535,0,{"webSessionId":":7r9wnq:35dg97","userID":"100009989478237","retry":false,"status":1}],["require_cond_exposure_logging",{"identifier":"Aa1dwlU3uTJiu8FhCzuqIoDEe8uKMR6c1u8e6z9hsVbtv1V3O4undFtVCyyx_iQ4G862a_iW4baBbNHYrl8PIJs"},1563876032898.535,0,{"webSessionId":":7r9wnq:35dg97","userID":"100009989478237","retry":false,"status":1}],["require_cond_exposure_logging",{"identifier":"Aa1dwlU3uTJiu8FhCzuqIoDEe8uKMR6c1u8e6z9hsVbtv1V3O4undFtVCyyx_iQ4G862a_iW4baBbNHYrl8PIJs"},1563876032898.545,0,{"webSessionId":":7r9wnq:35dg97","userID":"100009989478237","retry":false,"status":1}],["require_cond_exposure_logging",{"identifier":"Aa1dwlU3uTJiu8FhCzuqIoDEe8uKMR6c1u8e6z9hsVbtv1V3O4undFtVCyyx_iQ4G862a_iW4baBbNHYrl8PIJs"},1563876032898.545,0,{"webSessionId":":7r9wnq:35dg97","userID":"100009989478237","retry":false,"status":1}],["require_cond_exposure_logging",{"identifier":"Aa1dwlU3uTJiu8FhCzuqIoDEe8uKMR6c1u8e6z9hsVbtv1V3O4undFtVCyyx_iQ4G862a_iW4baBbNHYrl8PIJs"},1563876032898.55,0,{"webSessionId":":7r9wnq:35dg97","userID":"100009989478237","retry":false,"status":1}],["require_cond_exposure_logging",{"identifier":"Aa1dwlU3uTJiu8FhCzuqIoDEe8uKMR6c1u8e6z9hsVbtv1V3O4undFtVCyyx_iQ4G862a_iW4baBbNHYrl8PIJs"},1563876032898.555,0,{"webSessionId":":7r9wnq:35dg97","userID":"100009989478237","retry":false,"status":1}],["require_cond_exposure_logging",{"identifier":"Aa1dwlU3uTJiu8FhCzuqIoDEe8uKMR6c1u8e6z9hsVbtv1V3O4undFtVCyyx_iQ4G862a_iW4baBbNHYrl8PIJs"},1563876032898.56,0,{"webSessionId":":7r9wnq:35dg97","userID":"100009989478237","retry":false,"status":1}],["require_cond_exposure_logging",{"identifier":"Aa1dwlU3uTJiu8FhCzuqIoDEe8uKMR6c1u8e6z9hsVbtv1V3O4undFtVCyyx_iQ4G862a_iW4baBbNHYrl8PIJs"},1563876032898.565,0,{"webSessionId":":7r9wnq:35dg97","userID":"100009989478237","retry":false,"status":1}],["require_cond_exposure_logging",{"identifier":"Aa1dwlU3uTJiu8FhCzuqIoDEe8uKMR6c1u8e6z9hsVbtv1V3O4undFtVCyyx_iQ4G862a_iW4baBbNHYrl8PIJs"},1563876032898.565,0,{"webSessionId":":7r9wnq:35dg97","userID":"100009989478237","retry":false,"status":1}],["require_cond_exposure_logging",{"identifier":"Aa1dwlU3uTJiu8FhCzuqIoDEe8uKMR6c1u8e6z9hsVbtv1V3O4undFtVCyyx_iQ4G862a_iW4baBbNHYrl8PIJs"},1563876032898.575,0,{"webSessionId":":7r9wnq:35dg97","userID":"100009989478237","retry":false,"status":1}],["require_cond_exposure_logging",{"identifier":"Aa1dwlU3uTJiu8FhCzuqIoDEe8uKMR6c1u8e6z9hsVbtv1V3O4undFtVCyyx_iQ4G862a_iW4baBbNHYrl8PIJs"},1563876032898.58,0,{"webSessionId":":7r9wnq:35dg97","userID":"100009989478237","retry":false,"status":1}],["require_cond_exposure_logging",{"identifier":"Aa1dwlU3uTJiu8FhCzuqIoDEe8uKMR6c1u8e6z9hsVbtv1V3O4undFtVCyyx_iQ4G862a_iW4baBbNHYrl8PIJs"},1563876032898.585,0,{"webSessionId":":7r9wnq:35dg97","userID":"100009989478237","retry":false,"status":1}],["require_cond_exposure_logging",{"identifier":"Aa1dwlU3uTJiu8FhCzuqIoDEe8uKMR6c1u8e6z9hsVbtv1V3O4undFtVCyyx_iQ4G862a_iW4baBbNHYrl8PIJs"},1563876032898.585,0,{"webSessionId":":7r9wnq:35dg97","userID":"100009989478237","retry":false,"status":1}],["require_cond_exposure_logging",{"identifier":"Aa1dwlU3uTJiu8FhCzuqIoDEe8uKMR6c1u8e6z9hsVbtv1V3O4undFtVCyyx_iQ4G862a_iW4baBbNHYrl8PIJs"},1563876032898.59,0,{"webSessionId":":7r9wnq:35dg97","userID":"100009989478237","retry":false,"status":1}],["require_cond_exposure_logging",{"identifier":"Aa1dwlU3uTJiu8FhCzuqIoDEe8uKMR6c1u8e6z9hsVbtv1V3O4undFtVCyyx_iQ4G862a_iW4baBbNHYrl8PIJs"},1563876032898.595,0,{"webSessionId":":7r9wnq:35dg97","userID":"100009989478237","retry":false,"status":1}],["require_cond_exposure_logging",{"identifier":"Aa1dwlU3uTJiu8FhCzuqIoDEe8uKMR6c1u8e6z9hsVbtv1V3O4undFtVCyyx_iQ4G862a_iW4baBbNHYrl8PIJs"},1563876032898.6,0,{"webSessionId":":7r9wnq:35dg97","userID":"100009989478237","retry":false,"status":1}],["require_cond_exposure_logging",{"identifier":"Aa1dwlU3uTJiu8FhCzuqIoDEe8uKMR6c1u8e6z9hsVbtv1V3O4undFtVCyyx_iQ4G862a_iW4baBbNHYrl8PIJs"},1563876032898.6,0,{"webSessionId":":7r9wnq:35dg97","userID":"100009989478237","retry":false,"status":1}],["require_cond_exposure_logging",{"identifier":"Aa1dwlU3uTJiu8FhCzuqIoDEe8uKMR6c1u8e6z9hsVbtv1V3O4undFtVCyyx_iQ4G862a_iW4baBbNHYrl8PIJs"},1563876032898.605,0,{"webSessionId":":7r9wnq:35dg97","userID":"100009989478237","retry":false,"status":1}],["require_cond_exposure_logging",{"identifier":"Aa1dwlU3uTJiu8FhCzuqIoDEe8uKMR6c1u8e6z9hsVbtv1V3O4undFtVCyyx_iQ4G862a_iW4baBbNHYrl8PIJs"},1563876032898.605,0,{"webSessionId":":7r9wnq:35dg97","userID":"100009989478237","retry":false,"status":1}],["require_cond_exposure_logging",{"identifier":"Aa1dwlU3uTJiu8FhCzuqIoDEe8uKMR6c1u8e6z9hsVbtv1V3O4undFtVCyyx_iQ4G862a_iW4baBbNHYrl8PIJs"},1563876032898.61,0,{"webSessionId":":7r9wnq:35dg97","userID":"100009989478237","retry":false,"status":1}],["require_cond_exposure_logging",{"identifier":"Aa1dwlU3uTJiu8FhCzuqIoDEe8uKMR6c1u8e6z9hsVbtv1V3O4undFtVCyyx_iQ4G862a_iW4baBbNHYrl8PIJs"},1563876032898.62,0,{"webSessionId":":7r9wnq:35dg97","userID":"100009989478237","retry":false,"status":1}],["require_cond_exposure_logging",{"identifier":"Aa1dwlU3uTJiu8FhCzuqIoDEe8uKMR6c1u8e6z9hsVbtv1V3O4undFtVCyyx_iQ4G862a_iW4baBbNHYrl8PIJs"},1563876032898.625,0,{"webSessionId":":7r9wnq:35dg97","userID":"100009989478237","retry":false,"status":1}],["require_cond_exposure_logging",{"identifier":"Aa1dwlU3uTJiu8FhCzuqIoDEe8uKMR6c1u8e6z9hsVbtv1V3O4undFtVCyyx_iQ4G862a_iW4baBbNHYrl8PIJs"},1563876032898.625,0,{"webSessionId":":7r9wnq:35dg97","userID":"100009989478237","retry":false,"status":1}],["require_cond_exposure_logging",{"identifier":"Aa1dwlU3uTJiu8FhCzuqIoDEe8uKMR6c1u8e6z9hsVbtv1V3O4undFtVCyyx_iQ4G862a_iW4baBbNHYrl8PIJs"},1563876032898.63,0,{"webSessionId":":7r9wnq:35dg97","userID":"100009989478237","retry":false,"status":1}],["require_cond_exposure_logging",{"identifier":"Aa1dwlU3uTJiu8FhCzuqIoDEe8uKMR6c1u8e6z9hsVbtv1V3O4undFtVCyyx_iQ4G862a_iW4baBbNHYrl8PIJs"},1563876032898.635,0,{"webSessionId":":7r9wnq:35dg97","userID":"100009989478237","retry":false,"status":1}],["require_cond_exposure_logging",{"identifier":"Aa1dwlU3uTJiu8FhCzuqIoDEe8uKMR6c1u8e6z9hsVbtv1V3O4undFtVCyyx_iQ4G862a_iW4baBbNHYrl8PIJs"},1563876032898.635,0,{"webSessionId":":7r9wnq:35dg97","userID":"100009989478237","retry":false,"status":1}],["require_cond_exposure_logging",{"identifier":"Aa1dwlU3uTJiu8FhCzuqIoDEe8uKMR6c1u8e6z9hsVbtv1V3O4undFtVCyyx_iQ4G862a_iW4baBbNHYrl8PIJs"},1563876032898.64,0,{"webSessionId":":7r9wnq:35dg97","userID":"100009989478237","retry":false,"status":1}],["require_cond_exposure_logging",{"identifier":"Aa1dwlU3uTJiu8FhCzuqIoDEe8uKMR6c1u8e6z9hsVbtv1V3O4undFtVCyyx_iQ4G862a_iW4baBbNHYrl8PIJs"},1563876032898.645,0,{"webSessionId":":7r9wnq:35dg97","userID":"100009989478237","retry":false,"status":1}],["require_cond_exposure_logging",{"identifier":"Aa1dwlU3uTJiu8FhCzuqIoDEe8uKMR6c1u8e6z9hsVbtv1V3O4undFtVCyyx_iQ4G862a_iW4baBbNHYrl8PIJs"},1563876032898.65,0,{"webSessionId":":7r9wnq:35dg97","userID":"100009989478237","retry":false,"status":1}],["require_cond_exposure_logging",{"identifier":"Aa1dwlU3uTJiu8FhCzuqIoDEe8uKMR6c1u8e6z9hsVbtv1V3O4undFtVCyyx_iQ4G862a_iW4baBbNHYrl8PIJs"},1563876032898.65,0,{"webSessionId":":7r9wnq:35dg97","userID":"100009989478237","retry":false,"status":1}],["require_cond_exposure_logging",{"identifier":"Aa1dwlU3uTJiu8FhCzuqIoDEe8uKMR6c1u8e6z9hsVbtv1V3O4undFtVCyyx_iQ4G862a_iW4baBbNHYrl8PIJs"},1563876032898.655,0,{"webSessionId":":7r9wnq:35dg97","userID":"100009989478237","retry":false,"status":1}],["require_cond_exposure_logging",{"identifier":"Aa1dwlU3uTJiu8FhCzuqIoDEe8uKMR6c1u8e6z9hsVbtv1V3O4undFtVCyyx_iQ4G862a_iW4baBbNHYrl8PIJs"},1563876032898.66,0,{"webSessionId":":7r9wnq:35dg97","userID":"100009989478237","retry":false,"status":1}],["require_cond_exposure_logging",{"identifier":"Aa1dwlU3uTJiu8FhCzuqIoDEe8uKMR6c1u8e6z9hsVbtv1V3O4undFtVCyyx_iQ4G862a_iW4baBbNHYrl8PIJs"},1563876032898.665,0,{"webSessionId":":7r9wnq:35dg97","userID":"100009989478237","retry":false,"status":1}],["require_cond_exposure_logging",{"identifier":"Aa1dwlU3uTJiu8FhCzuqIoDEe8uKMR6c1u8e6z9hsVbtv1V3O4undFtVCyyx_iQ4G862a_iW4baBbNHYrl8PIJs"},1563876032898.67,0,{"webSessionId":":7r9wnq:35dg97","userID":"100009989478237","retry":false,"status":1}],["require_cond_exposure_logging",{"identifier":"Aa1dwlU3uTJiu8FhCzuqIoDEe8uKMR6c1u8e6z9hsVbtv1V3O4undFtVCyyx_iQ4G862a_iW4baBbNHYrl8PIJs"},1563876032898.675,0,{"webSessionId":":7r9wnq:35dg97","userID":"100009989478237","retry":false,"status":1}],["require_cond_exposure_logging",{"identifier":"Aa1dwlU3uTJiu8FhCzuqIoDEe8uKMR6c1u8e6z9hsVbtv1V3O4undFtVCyyx_iQ4G862a_iW4baBbNHYrl8PIJs"},1563876032898.68,0,{"webSessionId":":7r9wnq:35dg97","userID":"100009989478237","retry":false,"status":1}],["require_cond_exposure_logging",{"identifier":"Aa1dwlU3uTJiu8FhCzuqIoDEe8uKMR6c1u8e6z9hsVbtv1V3O4undFtVCyyx_iQ4G862a_iW4baBbNHYrl8PIJs"},1563876032898.685,0,{"webSessionId":":7r9wnq:35dg97","userID":"100009989478237","retry":false,"status":1}],["require_cond_exposure_logging",{"identifier":"Aa1dwlU3uTJiu8FhCzuqIoDEe8uKMR6c1u8e6z9hsVbtv1V3O4undFtVCyyx_iQ4G862a_iW4baBbNHYrl8PIJs"},1563876032898.69,0,{"webSessionId":":7r9wnq:35dg97","userID":"100009989478237","retry":false,"status":1}],["require_cond_exposure_logging",{"identifier":"Aa1dwlU3uTJiu8FhCzuqIoDEe8uKMR6c1u8e6z9hsVbtv1V3O4undFtVCyyx_iQ4G862a_iW4baBbNHYrl8PIJs"},1563876032898.69,0,{"webSessionId":":7r9wnq:35dg97","userID":"100009989478237","retry":false,"status":1}],["require_cond_exposure_logging",{"identifier":"Aa1dwlU3uTJiu8FhCzuqIoDEe8uKMR6c1u8e6z9hsVbtv1V3O4undFtVCyyx_iQ4G862a_iW4baBbNHYrl8PIJs"},1563876032898.695,0,{"webSessionId":":7r9wnq:35dg97","userID":"100009989478237","retry":false,"status":1}],["require_cond_exposure_logging",{"identifier":"Aa1dwlU3uTJiu8FhCzuqIoDEe8uKMR6c1u8e6z9hsVbtv1V3O4undFtVCyyx_iQ4G862a_iW4baBbNHYrl8PIJs"},1563876032898.7,0,{"webSessionId":":7r9wnq:35dg97","userID":"100009989478237","retry":false,"status":1}],["require_cond_exposure_logging",{"identifier":"Aa1dwlU3uTJiu8FhCzuqIoDEe8uKMR6c1u8e6z9hsVbtv1V3O4undFtVCyyx_iQ4G862a_iW4baBbNHYrl8PIJs"},1563876032898.705,0,{"webSessionId":":7r9wnq:35dg97","userID":"100009989478237","retry":false,"status":1}],["require_cond_exposure_logging",{"identifier":"Aa1dwlU3uTJiu8FhCzuqIoDEe8uKMR6c1u8e6z9hsVbtv1V3O4undFtVCyyx_iQ4G862a_iW4baBbNHYrl8PIJs"},1563876032898.71,0,{"webSessionId":":7r9wnq:35dg97","userID":"100009989478237","retry":false,"status":1}],["require_cond_exposure_logging",{"identifier":"Aa1dwlU3uTJiu8FhCzuqIoDEe8uKMR6c1u8e6z9hsVbtv1V3O4undFtVCyyx_iQ4G862a_iW4baBbNHYrl8PIJs"},1563876032898.71,0,{"webSessionId":":7r9wnq:35dg97","userID":"100009989478237","retry":false,"status":1}],["require_cond_exposure_logging",{"identifier":"Aa1dwlU3uTJiu8FhCzuqIoDEe8uKMR6c1u8e6z9hsVbtv1V3O4undFtVCyyx_iQ4G862a_iW4baBbNHYrl8PIJs"},1563876032898.715,0,{"webSessionId":":7r9wnq:35dg97","userID":"100009989478237","retry":false,"status":1}],["require_cond_exposure_logging",{"identifier":"Aa1dwlU3uTJiu8FhCzuqIoDEe8uKMR6c1u8e6z9hsVbtv1V3O4undFtVCyyx_iQ4G862a_iW4baBbNHYrl8PIJs"},1563876032898.725,0,{"webSessionId":":7r9wnq:35dg97","userID":"100009989478237","retry":false,"status":1}],["require_cond_exposure_logging",{"identifier":"Aa1dwlU3uTJiu8FhCzuqIoDEe8uKMR6c1u8e6z9hsVbtv1V3O4undFtVCyyx_iQ4G862a_iW4baBbNHYrl8PIJs"},1563876032898.725,0,{"webSessionId":":7r9wnq:35dg97","userID":"100009989478237","retry":false,"status":1}],["require_cond_exposure_logging",{"identifier":"Aa1dwlU3uTJiu8FhCzuqIoDEe8uKMR6c1u8e6z9hsVbtv1V3O4undFtVCyyx_iQ4G862a_iW4baBbNHYrl8PIJs"},1563876032898.73,0,{"webSessionId":":7r9wnq:35dg97","userID":"100009989478237","retry":false,"status":1}],["require_cond_exposure_logging",{"identifier":"Aa1dwlU3uTJiu8FhCzuqIoDEe8uKMR6c1u8e6z9hsVbtv1V3O4undFtVCyyx_iQ4G862a_iW4baBbNHYrl8PIJs"},1563876032898.735,0,{"webSessionId":":7r9wnq:35dg97","userID":"100009989478237","retry":false,"status":1}],["require_cond_exposure_logging",{"identifier":"Aa1dwlU3uTJiu8FhCzuqIoDEe8uKMR6c1u8e6z9hsVbtv1V3O4undFtVCyyx_iQ4G862a_iW4baBbNHYrl8PIJs"},1563876032898.74,0,{"webSessionId":":7r9wnq:35dg97","userID":"100009989478237","retry":false,"status":1}],["require_cond_exposure_logging",{"identifier":"Aa1dwlU3uTJiu8FhCzuqIoDEe8uKMR6c1u8e6z9hsVbtv1V3O4undFtVCyyx_iQ4G862a_iW4baBbNHYrl8PIJs"},1563876032898.745,0,{"webSessionId":":7r9wnq:35dg97","userID":"100009989478237","retry":false,"status":1}],["require_cond_exposure_logging",{"identifier":"Aa1dwlU3uTJiu8FhCzuqIoDEe8uKMR6c1u8e6z9hsVbtv1V3O4undFtVCyyx_iQ4G862a_iW4baBbNHYrl8PIJs"},1563876032898.745,0,{"webSessionId":":7r9wnq:35dg97","userID":"100009989478237","retry":false,"status":1}],["require_cond_exposure_logging",{"identifier":"Aa1dwlU3uTJiu8FhCzuqIoDEe8uKMR6c1u8e6z9hsVbtv1V3O4undFtVCyyx_iQ4G862a_iW4baBbNHYrl8PIJs"},1563876032898.75,0,{"webSessionId":":7r9wnq:35dg97","userID":"100009989478237","retry":false,"status":1}],["require_cond_exposure_logging",{"identifier":"Aa1dwlU3uTJiu8FhCzuqIoDEe8uKMR6c1u8e6z9hsVbtv1V3O4undFtVCyyx_iQ4G862a_iW4baBbNHYrl8PIJs"},1563876032898.755,0,{"webSessionId":":7r9wnq:35dg97","userID":"100009989478237","retry":false,"status":1}],["require_cond_exposure_logging",{"identifier":"Aa1dwlU3uTJiu8FhCzuqIoDEe8uKMR6c1u8e6z9hsVbtv1V3O4undFtVCyyx_iQ4G862a_iW4baBbNHYrl8PIJs"},1563876032898.755,0,{"webSessionId":":7r9wnq:35dg97","userID":"100009989478237","retry":false,"status":1}],["require_cond_exposure_logging",{"identifier":"Aa1dwlU3uTJiu8FhCzuqIoDEe8uKMR6c1u8e6z9hsVbtv1V3O4undFtVCyyx_iQ4G862a_iW4baBbNHYrl8PIJs"},1563876032898.765,0,{"webSessionId":":7r9wnq:35dg97","userID":"100009989478237","retry":false,"status":1}],["require_cond_exposure_logging",{"identifier":"Aa1dwlU3uTJiu8FhCzuqIoDEe8uKMR6c1u8e6z9hsVbtv1V3O4undFtVCyyx_iQ4G862a_iW4baBbNHYrl8PIJs"},1563876032898.765,0,{"webSessionId":":7r9wnq:35dg97","userID":"100009989478237","retry":false,"status":1}],["require_cond_exposure_logging",{"identifier":"Aa1dwlU3uTJiu8FhCzuqIoDEe8uKMR6c1u8e6z9hsVbtv1V3O4undFtVCyyx_iQ4G862a_iW4baBbNHYrl8PIJs"},1563876032898.77,0,{"webSessionId":":7r9wnq:35dg97","userID":"100009989478237","retry":false,"status":1}],["require_cond_exposure_logging",{"identifier":"Aa1dwlU3uTJiu8FhCzuqIoDEe8uKMR6c1u8e6z9hsVbtv1V3O4undFtVCyyx_iQ4G862a_iW4baBbNHYrl8PIJs"},1563876032898.775,0,{"webSessionId":":7r9wnq:35dg97","userID":"100009989478237","retry":false,"status":1}],["require_cond_exposure_logging",{"identifier":"Aa1dwlU3uTJiu8FhCzuqIoDEe8uKMR6c1u8e6z9hsVbtv1V3O4undFtVCyyx_iQ4G862a_iW4baBbNHYrl8PIJs"},1563876032898.78,0,{"webSessionId":":7r9wnq:35dg97","userID":"100009989478237","retry":false,"status":1}],["require_cond_exposure_logging",{"identifier":"Aa1dwlU3uTJiu8FhCzuqIoDEe8uKMR6c1u8e6z9hsVbtv1V3O4undFtVCyyx_iQ4G862a_iW4baBbNHYrl8PIJs"},1563876032898.785,0,{"webSessionId":":7r9wnq:35dg97","userID":"100009989478237","retry":false,"status":1}],["require_cond_exposure_logging",{"identifier":"Aa1dwlU3uTJiu8FhCzuqIoDEe8uKMR6c1u8e6z9hsVbtv1V3O4undFtVCyyx_iQ4G862a_iW4baBbNHYrl8PIJs"},1563876032898.785,0,{"webSessionId":":7r9wnq:35dg97","userID":"100009989478237","retry":false,"status":1}],["require_cond_exposure_logging",{"identifier":"Aa1dwlU3uTJiu8FhCzuqIoDEe8uKMR6c1u8e6z9hsVbtv1V3O4undFtVCyyx_iQ4G862a_iW4baBbNHYrl8PIJs"},1563876032898.79,0,{"webSessionId":":7r9wnq:35dg97","userID":"100009989478237","retry":false,"status":1}],["require_cond_exposure_logging",{"identifier":"Aa1dwlU3uTJiu8FhCzuqIoDEe8uKMR6c1u8e6z9hsVbtv1V3O4undFtVCyyx_iQ4G862a_iW4baBbNHYrl8PIJs"},1563876032898.795,0,{"webSessionId":":7r9wnq:35dg97","userID":"100009989478237","retry":false,"status":1}],["require_cond_exposure_logging",{"identifier":"Aa1dwlU3uTJiu8FhCzuqIoDEe8uKMR6c1u8e6z9hsVbtv1V3O4undFtVCyyx_iQ4G862a_iW4baBbNHYrl8PIJs"},1563876032898.8,0,{"webSessionId":":7r9wnq:35dg97","userID":"100009989478237","retry":false,"status":1}],["require_cond_exposure_logging",{"identifier":"Aa1dwlU3uTJiu8FhCzuqIoDEe8uKMR6c1u8e6z9hsVbtv1V3O4undFtVCyyx_iQ4G862a_iW4baBbNHYrl8PIJs"},1563876032898.805,0,{"webSessionId":":7r9wnq:35dg97","userID":"100009989478237","retry":false,"status":1}],["require_cond_exposure_logging",{"identifier":"Aa1dwlU3uTJiu8FhCzuqIoDEe8uKMR6c1u8e6z9hsVbtv1V3O4undFtVCyyx_iQ4G862a_iW4baBbNHYrl8PIJs"},1563876032898.81,0,{"webSessionId":":7r9wnq:35dg97","userID":"100009989478237","retry":false,"status":1}],["require_cond_exposure_logging",{"identifier":"Aa1dwlU3uTJiu8FhCzuqIoDEe8uKMR6c1u8e6z9hsVbtv1V3O4undFtVCyyx_iQ4G862a_iW4baBbNHYrl8PIJs"},1563876032898.81,0,{"webSessionId":":7r9wnq:35dg97","userID":"100009989478237","retry":false,"status":1}],["require_cond_exposure_logging",{"identifier":"Aa1dwlU3uTJiu8FhCzuqIoDEe8uKMR6c1u8e6z9hsVbtv1V3O4undFtVCyyx_iQ4G862a_iW4baBbNHYrl8PIJs"},1563876032898.815,0,{"webSessionId":":7r9wnq:35dg97","userID":"100009989478237","retry":false,"status":1}],["require_cond_exposure_logging",{"identifier":"Aa1dwlU3uTJiu8FhCzuqIoDEe8uKMR6c1u8e6z9hsVbtv1V3O4undFtVCyyx_iQ4G862a_iW4baBbNHYrl8PIJs"},1563876032898.815,0,{"webSessionId":":7r9wnq:35dg97","userID":"100009989478237","retry":false,"status":1}],["require_cond_exposure_logging",{"identifier":"Aa1dwlU3uTJiu8FhCzuqIoDEe8uKMR6c1u8e6z9hsVbtv1V3O4undFtVCyyx_iQ4G862a_iW4baBbNHYrl8PIJs"},1563876032898.825,0,{"webSessionId":":7r9wnq:35dg97","userID":"100009989478237","retry":false,"status":1}],["require_cond_exposure_logging",{"identifier":"Aa1dwlU3uTJiu8FhCzuqIoDEe8uKMR6c1u8e6z9hsVbtv1V3O4undFtVCyyx_iQ4G862a_iW4baBbNHYrl8PIJs"},1563876032898.825,0,{"webSessionId":":7r9wnq:35dg97","userID":"100009989478237","retry":false,"status":1}],["require_cond_exposure_logging",{"identî¿b‘˘ifier":"Aa1dwlU3uTJiu8FhCzuqIoDEe8uKMR6c1u8e6z9hsVbtv1V3O4undFtVCyyx_iQ4G862a_iW4baBbNHYrl8PIJs"},1563876032898.83,0,{"webSessionId":":7r9wnq:35dg97","userID":"100009989478237","retry":false,"status":1}],["require_cond_exposure_logging",{"identifier":"Aa1dwlU3uTJiu8FhCzuqIoDEe8uKMR6c1u8e6z9hsVbtv1V3O4undFtVCyyx_iQ4G862a_iW4baBbNHYrl8PIJs"},1563876032898.835,0,{"webSessionId":":7r9wnq:35dg97","userID":"100009989478237","retry":false,"status":1}],["require_cond_exposure_logging",{"identifier":"Aa1dwlU3uTJiu8FhCzuqIoDEe8uKMR6c1u8e6z9hsVbtv1V3O4undFtVCyyx_iQ4G862a_iW4baBbNHYrl8PIJs"},1563876032898.84,0,{"webSessionId":":7r9wnq:35dg97","userID":"100009989478237","retry":false,"status":1}],["require_cond_exposure_logging",{"identifier":"Aa1dwlU3uTJiu8FhCzuqIoDEe8uKMR6c1u8e6z9hsVbtv1V3O4undFtVCyyx_iQ4G862a_iW4baBbNHYrl8PIJs"},1563876032898.845,0,{"webSessionId":":7r9wnq:35dg97","userID":"100009989478237","retry":false,"status":1}],["require_cond_exposure_logging",{"identifier":"Aa1dwlU3uTJiu8FhCzuqIoDEe8uKMR6c1u8e6z9hsVbtv1V3O4undFtVCyyx_iQ4G862a_iW4baBbNHYrl8PIJs"},1563876032898.85,0,{"webSessionId":":7r9wnq:35dg97","userID":"100009989478237","retry":false,"status":1}],["require_cond_exposure_logging",{"identifier":"Aa1dwlU3uTJiu8FhCzuqIoDEe8uKMR6c1u8e6z9hsVbtv1V3O4undFtVCyyx_iQ4G862a_iW4baBbNHYrl8PIJs"},1563876032898.855,0,{"webSessionId":":7r9wnq:35dg97","userID":"100009989478237","retry":false,"status":1}],["require_cond_exposure_logging",{"identifier":"Aa1dwlU3uTJiu8FhCzuqIoDEe8uKMR6c1u8e6z9hsVbtv1V3O4undFtVCyyx_iQ4G862a_iW4baBbNHYrl8PIJs"},1563876032898.855,0,{"webSessionId":":7r9wnq:35dg97","userID":"100009989478237","retry":false,"status":1}],["require_cond_exposure_logging",{"identifier":"Aa1dwlU3uTJiu8FhCzuqIoDEe8uKMR6c1u8e6z9hsVbtv1V3O4undFtVCyyx_iQ4G862a_iW4baBbNHYrl8PIJs"},1563876032898.86,0,{"webSessionId":":7r9wnq:35dg97","userID":"100009989478237","retry":false,"status":1}],["require_cond_exposure_logging",{"identifier":"Aa1dwlU3uTJiu8FhCzuqIoDEe8uKMR6c1u8e6z9hsVbtv1V3O4undFtVCyyx_iQ4G862a_iW4baBbNHYrl8PIJs"},1563876032898.86,0,{"webSessionId":":7r9wnq:35dg97","userID":"100009989478237","retry":false,"status":1}],["require_cond_exposure_logging",{"identifier":"Aa1dwlU3uTJiu8FhCzuqIoDEe8uKMR6c1u8e6z9hsVbtv1V3O4undFtVCyyx_iQ4G862a_iW4baBbNHYrl8PIJs"},1563876032898.87,0,{"webSessionId":":7r9wnq:35dg97","userID":"100009989478237","retry":false,"status":1}],["require_cond_exposure_logging",{"identifier":"Aa1dwlU3uTJiu8FhCzuqIoDEe8uKMR6c1u8e6z9hsVbtv1V3O4undFtVCyyx_iQ4G862a_iW4baBbNHYrl8PIJs"},1563876032898.875,0,{"webSessionId":":7r9wnq:35dg97","userID":"100009989478237","retry":false,"status":1}],["require_cond_exposure_logging",{"identifier":"Aa1dwlU3uTJiu8FhCzuqIoDEe8uKMR6c1u8e6z9hsVbtv1V3O4undFtVCyyx_iQ4G862a_iW4baBbNHYrl8PIJs"},1563876032898.875,0,{"webSessionId":":7r9wnq:35dg97","userID":"100009989478237","retry":false,"status":1}],["require_cond_exposure_logging",{"identifier":"Aa1dwlU3uTJiu8FhCzuqIoDEe8uKMR6c1u8e6z9hsVbtv1V3O4undFtVCyyx_iQ4G862a_iW4baBbNHYrl8PIJs"},1563876032898.88,0,{"webSessionId":":7r9wnq:35dg97","userID":"100009989478237","retry":false,"status":1}],["require_cond_exposure_logging",{"identifier":"Aa1dwlU3uTJiu8FhCzuqIoDEe8uKMR6c1u8e6z9hsVbtv1V3O4undFtVCyyx_iQ4G862a_iW4baBbNHYrl8PIJs"},1563876032898.885,0,{"webSessionId":":7r9wnq:35dg97","userID":"100009989478237","retry":false,"status":1}],["require_cond_exposure_logging",{"identifier":"Aa1dwlU3uTJiu8FhCzuqIoDEe8uKMR6c1u8e6z9hsVbtv1V3O4undFtVCyyx_iQ4G862a_iW4baBbNHYrl8PIJs"},1563876032898.89,0,{"webSessionId":":7r9wnq:35dg97","userID":"100009989478237","retry":false,"status":1}],["require_cond_exposure_logging",{"identifier":"Aa1dwlU3uTJiu8FhCzuqIoDEe8uKMR6c1u8e6z9hsVbtv1V3O4undFtVCyyx_iQ4G862a_iW4baBbNHYrl8PIJs"},1563876032898.895,0,{"webSessionId":":7r9wnq:35dg97","userID":"100009989478237","retry":false,"status":1}],["require_cond_exposure_logging",{"identifier":"Aa1dwlU3uTJiu8FhCzuqIoDEe8uKMR6c1u8e6z9hsVbtv1V3O4undFtVCyyx_iQ4G862a_iW4baBbNHYrl8PIJs"},1563876032898.9,0,{"webSessionId":":7r9wnq:35dg97","userID":"100009989478237","retry":false,"status":1}],["require_cond_exposure_logging",{"identifier":"Aa1dwlU3uTJiu8FhCzuqIoDEe8uKMR6c1u8e6z9hsVbtv1V3O4undFtVCyyx_iQ4G862a_iW4baBbNHYrl8PIJs"},1563876032898.9,0,{"webSessionId":":7r9wnq:35dg97","userID":"100009989478237","retry":false,"status":1}],["require_cond_exposure_logging",{"identifier":"Aa1dwlU3uTJiu8FhCzuqIoDEe8uKMR6c1u8e6z9hsVbtv1V3O4undFtVCyyx_iQ4G862a_iW4baBbNHYrl8PIJs"},1563876032898.905,0,{"webSessionId":":7r9wnq:35dg97","userID":"100009989478237","retry":false,"status":1}],["require_cond_exposure_logging",{"identifier":"Aa1dwlU3uTJiu8FhCzuqIoDEe8uKMR6c1u8e6z9hsVbtv1V3O4undFtVCyyx_iQ4G862a_iW4baBbNHYrl8PIJs"},1563876032898.91,0,{"webSessionId":":7r9wnq:35dg97","userID":"100009989478237","retry":false,"status":1}],["require_cond_exposure_logging",{"identifier":"Aa1dwlU3uTJiu8FhCzuqIoDEe8uKMR6c1u8e6z9hsVbtv1V3O4undFtVCyyx_iQ4G862a_iW4baBbNHYrl8PIJs"},1563876032898.915,0,{"webSessionId":":7r9wnq:35dg97","userID":"100009989478237","retry":false,"status":1}],["require_cond_exposure_logging",{"identifier":"Aa1dwlU3uTJiu8FhCzuqIoDEe8uKMR6c1u8e6z9hsVbtv1V3O4undFtVCyyx_iQ4G862a_iW4baBbNHYrl8PIJs"},1563876032898.915,0,{"webSessionId":":7r9wnq:35dg97","userID":"100009989478237","retry":false,"status":1}],["require_cond_exposure_logging",{"identifier":"Aa1dwlU3uTJiu8FhCzuqIoDEe8uKMR6c1u8e6z9hsVbtv1V3O4undFtVCyyx_iQ4G862a_iW4baBbNHYrl8PIJs"},1563876032898.92,0,{"webSessionId":":7r9wnq:35dg97","userID":"100009989478237","retry":false,"status":1}],["require_cond_exposure_logging",{"identifier":"Aa1dwlU3uTJiu8FhCzuqIoDEe8uKMR6c1u8e6z9hsVbtv1V3O4undFtVCyyx_iQ4G862a_iW4baBbNHYrl8PIJs"},1563876032898.925,0,{"webSessionId":":7r9wnq:35dg97","userID":"100009989478237","retry":false,"status":1}],["require_cond_exposure_logging",{"identifier":"Aa1dwlU3uTJiu8FhCzuqIoDEe8uKMR6c1u8e6z9hsVbtv1V3O4undFtVCyyx_iQ4G862a_iW4baBbNHYrl8PIJs"},1563876032898.93,0,{"webSessionId":":7r9wnq:35dg97","userID":"100009989478237","retry":false,"status":1}],["require_cond_exposure_logging",{"identifier":"Aa1dwlU3uTJiu8FhCzuqIoDEe8uKMR6c1u8e6z9hsVbtv1V3O4undFtVCyyx_iQ4G862a_iW4baBbNHYrl8PIJs"},1563876032898.93,0,{"webSessionId":":7r9wnq:35dg97","userID":"100009989478237","retry":false,"status":1}],["require_cond_exposure_logging",{"identifier":"Aa1dwlU3uTJiu8FhCzuqIoDEe8uKMR6c1u8e6z9hsVbtv1V3O4undFtVCyyx_iQ4G862a_iW4baBbNHYrl8PIJs"},1563876032898.94,0,{"webSessionId":":7r9wnq:35dg97","userID":"100009989478237","retry":false,"status":1}],["require_cond_exposure_logging",{"identifier":"Aa1dwlU3uTJiu8FhCzuqIoDEe8uKMR6c1u8e6z9hsVbtv1V3O4undFtVCyyx_iQ4G862a_iW4baBbNHYrl8PIJs"},1563876032898.94,0,{"webSessionId":":7r9wnq:35dg97","userID":"100009989478237","retry":false,"status":1}],["require_cond_exposure_logging",{"identifier":"Aa1dwlU3uTJiu8FhCzuqIoDEe8uKMR6c1u8e6z9hsVbtv1V3O4undFtVCyyx_iQ4G862a_iW4baBbNHYrl8PIJs"},1563876032898.945,0,{"webSessionId":":7r9wnq:35dg97","userID":"100009989478237","retry":false,"status":1}],["require_cond_exposure_logging",{"identifier":"Aa1dwlU3uTJiu8FhCzuqIoDEe8uKMR6c1u8e6z9hsVbtv1V3O4undFtVCyyx_iQ4G862a_iW4baBbNHYrl8PIJs"},1563876032898.95,0,{"webSessionId":":7r9wnq:35dg97","userID":"100009989478237","retry":false,"status":1}],["require_cond_exposure_logging",{"identifier":"Aa1dwlU3uTJiu8FhCzuqIoDEe8uKMR6c1u8e6z9hsVbtv1V3O4undFtVCyyx_iQ4G862a_iW4baBbNHYrl8PIJs"},1563876032898.955,0,{"webSessionId":":7r9wnq:35dg97","userID":"100009989478237","retry":false,"status":1}],["require_cond_exposure_logging",{"identifier":"Aa1dwlU3uTJiu8FhCzuqIoDEe8uKMR6c1u8e6z9hsVbtv1V3O4undFtVCyyx_iQ4G862a_iW4baBbNHYrl8PIJs"},1563876032898.96,0,{"webSessionId":":7r9wnq:35dg97","userID":"100009989478237","retry":false,"status":1}],["require_cond_exposure_logging",{"identifier":"Aa1dwlU3uTJiu8FhCzuqIoDEe8uKMR6c1u8e6z9hsVbtv1V3O4undFtVCyyx_iQ4G862a_iW4baBbNHYrl8PIJs"},1563876032898.96,0,{"webSessionId":":7r9wnq:35dg97","userID":"100009989478237","retry":false,"status":1}],["require_cond_exposure_logging",{"identifier":"Aa1dwlU3uTJiu8FhCzuqIoDEe8uKMR6c1u8e6z9hsVbtv1V3O4undFtVCyyx_iQ4G862a_iW4baBbNHYrl8PIJs"},1563876032898.965,0,{"webSessionId":":7r9wnq:35dg97","userID":"100009989478237","retry":false,"status":1}],["require_cond_exposure_logging",{"identifier":"Aa1dwlU3uTJiu8FhCzuqIoDEe8uKMR6c1u8e6z9hsVbtv1V3O4undFtVCyyx_iQ4G862a_iW4baBbNHYrl8PIJs"},1563876032898.97,0,{"webSessionId":":7r9wnq:35dg97","userID":"100009989478237","retry":false,"status":1}],["require_cond_exposure_logging",{"identifier":"Aa1dwlU3uTJiu8FhCzuqIoDEe8uKMR6c1u8e6z9hsVbtv1V3O4undFtVCyyx_iQ4G862a_iW4baBbNHYrl8PIJs"},1563876032898.975,0,{"webSessionId":":7r9wnq:35dg97","userID":"100009989478237","retry":false,"status":1}],["require_cond_exposure_logging",{"identifier":"Aa1dwlU3uTJiu8FhCzuqIoDEe8uKMR6c1u8e6z9hsVbtv1V3O4undFtVCyyx_iQ4G862a_iW4baBbNHYrl8PIJs"},1563876032898.98,0,{"webSessionId":":7r9wnq:35dg97","userID":"100009989478237","retry":false,"status":1}],["require_cond_exposure_logging",{"identifier":"Aa1dwlU3uTJiu8FhCzuqIoDEe8uKMR6c1u8e6z9hsVbtv1V3O4undFtVCyyx_iQ4G862a_iW4baBbNHYrl8PIJs"},1563876032898.98,0,{"webSessionId":":7r9wnq:35dg97","userID":"100009989478237","retry":false,"status":1}],["require_cond_exposure_logging",{"identifier":"Aa1dwlU3uTJiu8FhCzuqIoDEe8uKMR6c1u8e6z9hsVbtv1V3O4undFtVCyyx_iQ4G862a_iW4baBbNHYrl8PIJs"},1563876032898.985,0,{"webSessionId":":7r9wnq:35dg97","userID":"100009989478237","retry":false,"status":1}],["require_cond_exposure_logging",{"identifier":"Aa1dwlU3uTJiu8FhCzuqIoDEe8uKMR6c1u8e6z9hsVbtv1V3O4undFtVCyyx_iQ4G862a_iW4baBbNHYrl8PIJs"},1563876032898.99,0,{"webSessionId":":7r9wnq:35dg97","userID":"100009989478237","retry":false,"status":1}],["require_cond_exposure_logging",{"identifier":"Aa1dwlU3uTJiu8FhCzuqIoDEe8uKMR6c1u8e6z9hsVbtv1V3O4undFtVCyyx_iQ4G862a_iW4baBbNHYrl8PIJs"},1563876032898.995,0,{"webSessionId":":7r9wnq:35dg97","userID":"100009989478237","retry":false,"status":1}],["require_cond_exposure_logging",{"identifier":"Aa1dwlU3uTJiu8FhCzuqIoDEe8uKMR6c1u8e6z9hsVbtv1V3O4undFtVCyyx_iQ4G862a_iW4baBbNHYrl8PIJs"},1563876032899,0,{"webSessionId":":7r9wnq:35dg97","userID":"100009989478237","retry":false,"status":1}],["require_cond_exposure_logging",{"identifier":"Aa1dwlU3uTJiu8FhCzuqIoDEe8uKMR6c1u8e6z9hsVbtv1V3O4undFtVCyyx_iQ4G862a_iW4baBbNHYrl8PIJs"},1563876032899,0,{"webSessionId":":7r9wnq:35dg97","userID":"100009989478237","retry":false,"status":1}],["require_cond_exposure_logging",{"identifier":"Aa1dwlU3uTJiu8FhCzuqIoDEe8uKMR6c1u8e6z9hsVbtv1V3O4undFtVCyyx_iQ4G862a_iW4baBbNHYrl8PIJs"},1563876032899.005,0,{"webSessionId":":7r9wnq:35dg97","userID":"100009989478237","retry":false,"status":1}],["require_cond_exposure_logging",{"identifier":"Aa1dwlU3uTJiu8FhCzuqIoDEe8uKMR6c1u8e6z9hsVbtv1V3O4undFtVCyyx_iQ4G862a_iW4baBbNHYrl8PIJs"},1563876032899.015,0,{"webSessionId":":7r9wnq:35dg97","userID":"100009989478237","retry":false,"status":1}],["require_cond_exposure_logging",{"identifier":"Aa1dwlU3uTJiu8FhCzuqIoDEe8uKMR6c1u8e6z9hsVbtv1V3O4undFtVCyyx_iQ4G862a_iW4baBbNHYrl8PIJs"},1563876032899.015,0,{"webSessionId":":7r9wnq:35dg97","userID":"100009989478237","retry":false,"status":1}],["require_cond_exposure_logging",{"identifier":"Aa1dwlU3uTJiu8FhCzuqIoDEe8uKMR6c1u8e6z9hsVbtv1V3O4undFtVCyyx_iQ4G862a_iW4baBbNHYrl8PIJs"},1563876032899.02,0,{"webSessionId":":7r9wnq:35dg97","userID":"100009989478237","retry":false,"status":1}],["require_cond_exposure_logging",{"identifier":"Aa1dwlU3uTJiu8FhCzuqIoDEe8uKMR6c1u8e6z9hsVbtv1V3O4undFtVCyyx_iQ4G862a_iW4baBbNHYrl8PIJs"},1563876032899.02,0,{"webSessionId":":7r9wnq:35dg97","userID":"100009989478237","retry":false,"status":1}],["require_cond_exposure_logging",{"identifier":"Aa1dwlU3uTJiu8FhCzuqIoDEe8uKMR6c1u8e6z9hsVbtv1V3O4undFtVCyyx_iQ4G862a_iW4baBbNHYrl8PIJs"},1563876032899.025,0,{"webSessionId":":7r9wnq:35dg97","userID":"100009989478237","retry":false,"status":1}],["require_cond_exposure_logging",{"identifier":"Aa1dwlU3uTJiu8FhCzuqIoDEe8uKMR6c1u8e6z9hsVbtv1V3O4undFtVCyyx_iQ4G862a_iW4baBbNHYrl8PIJs"},1563876032899.03,0,{"webSessionId":":7r9wnq:35dg97","userID":"100009989478237","retry":false,"status":1}],["require_cond_exposure_logging",{"identifier":"Aa1dwlU3uTJiu8FhCzuqIoDEe8uKMR6c1u8e6z9hsVbtv1V3O4undFtVCyyx_iQ4G862a_iW4baBbNHYrl8PIJs"},1563876032899.035,0,{"webSessionId":":7r9wnq:35dg97","userID":"100009989478237","retry":false,"status":1}],["require_cond_exposure_logging",{"identifier":"Aa1dwlU3uTJiu8FhCzuqIoDEe8uKMR6c1u8e6z9hsVbtv1V3O4undFtVCyyx_iQ4G862a_iW4baBbNHYrl8PIJs"},1563876032899.04,0,{"webSessionId":":7r9wnq:35dg97","userID":"100009989478237","retry":false,"status":1}],["require_cond_exposure_logging",{"identifier":"Aa1dwlU3uTJiu8FhCzuqIoDEe8uKMR6c1u8e6z9hsVbtv1V3O4undFtVCyyx_iQ4G862a_iW4baBbNHYrl8PIJs"},1563876032899.045,0,{"webSessionId":":7r9wnq:35dg97","userID":"100009989478237","retry":false,"status":1}],["require_cond_exposure_logging",{"identifier":"Aa1dwlU3uTJiu8FhCzuqIoDEe8uKMR6c1u8e6z9hsVbtv1V3O4undFtVCyyx_iQ4G862a_iW4baBbNHYrl8PIJs"},1563876032899.05,0,{"webSessionId":":7r9wnq:35dg97","userID":"100009989478237","retry":false,"status":1}],["require_cond_exposure_logging",{"identifier":"Aa1dwlU3uTJiu8FhCzuqIoDEe8uKMR6c1u8e6z9hsVbtv1V3O4undFtVCyyx_iQ4G862a_iW4baBbNHYrl8PIJs"},1563876032899.06,0,{"webSessionId":":7r9wnq:35dg97","userID":"100009989478237","retry":false,"status":1}],["require_cond_exposure_logging",{"identifier":"Aa1dwlU3uTJiu8FhCzuqIoDEe8uKMR6c1u8e6z9hsVbtv1V3O4undFtVCyyx_iQ4G862a_iW4baBbNHYrl8PIJs"},1563876032899.06,0,{"webSessionId":":7r9wnq:35dg97","userID":"100009989478237","retry":false,"status":1}],["require_cond_exposure_logging",{"identifier":"Aa1dwlU3uTJiu8FhCzuqIoDEe8uKMR6c1u8e6z9hsVbtv1V3O4undFtVCyyx_iQ4G862a_iW4baBbNHYrl8PIJs"},1563876032899.065,0,{"webSessionId":":7r9wnq:35dg97","userID":"100009989478237","retry":false,"status":1}],["require_cond_exposure_logging",{"identifier":"Aa1dwlU3uTJiu8FhCzuqIoDEe8uKMR6c1u8e6z9hsVbtv1V3O4undFtVCyyx_iQ4G862a_iW4baBbNHYrl8PIJs"},1563876032899.07,0,{"webSessionId":":7r9wnq:35dg97","userID":"100009989478237","retry":false,"status":1}],["require_cond_exposure_logging",{"identifier":"Aa1dwlU3uTJiu8FhCzuqIoDEe8uKMR6c1u8e6z9hsVbtv1V3O4undFtVCyyx_iQ4G862a_iW4baBbNHYrl8PIJs"},1563876032899.075,0,{"webSessionId":":7r9wnq:35dg97","userID":"100009989478237","retry":false,"status":1}],["require_cond_exposure_logging",{"identifier":"Aa1dwlU3uTJiu8FhCzuqIoDEe8uKMR6c1u8e6z9hsVbtv1V3O4undFtVCyyx_iQ4G862a_iW4baBbNHYrl8PIJs"},1563876032899.075,0,{"webSessionId":":7r9wnq:35dg97","userID":"100009989478237","retry":false,"status":1}],["require_cond_exposure_logging",{"identifier":"Aa1dwlU3uTJiu8FhCzuqIoDEe8uKMR6c1u8e6z9hsVbtv1V3O4undFtVCyyx_iQ4G862a_iW4baBbNHYrl8PIJs"},1563876032899.085,0,{"webSessionId":":7r9wnq:35dg97","userID":"100009989478237","retry":false,"status":1}],["require_cond_exposure_logging",{"identifier":"Aa1dwlU3uTJiu8FhCzuqIoDEe8uKMR6c1u8e6z9hsVbtv1V3O4undFtVCyyx_iQ4G862a_iW4baBbNHYrl8PIJs"},1563876032899.085,0,{"webSessionId":":7r9wnq:35dg97","userID":"100009989478237","retry":false,"status":1}],["require_cond_exposure_logging",{"identifier":"Aa1dwlU3uTJiu8FhCzuqIoDEe8uKMR6c1u8e6z9hsVbtv1V3O4undFtVCyyx_iQ4G862a_iW4baBbNHYrl8PIJs"},1563876032899.09,0,{"webSessionId":":7r9wnq:35dg97","userID":"100009989478237","retry":false,"status":1}],["require_cond_exposure_logging",{"identifier":"Aa1dwlU3uTJiu8FhCzuqIoDEe8uKMR6c1u8e6z9hsVbtv1V3O4undFtVCyyx_iQ4G862a_iW4baBbNHYrl8PIJs"},1563876032899.095,0,{"webSessionId":":7r9wnq:35dg97","userID":"100009989478237","retry":false,"status":1}],["require_cond_exposure_logging",{"identifier":"Aa1dwlU3uTJiu8FhCzuqIoDEe8uKMR6c1u8e6z9hsVbtv1V3O4undFtVCyyx_iQ4G862a_iW4baBbNHYrl8PIJs"},1563876032899.095,0,{"webSessionId":":7r9wnq:35dg97","userID":"100009989478237","retry":false,"status":1}],["require_cond_exposure_logging",{"identifier":"Aa1dwlU3uTJiu8FhCzuqIoDEe8uKMR6c1u8e6z9hsVbtv1V3O4undFtVCyyx_iQ4G862a_iW4baBbNHYrl8PIJs"},1563876032899.105,0,{"webSessionId":":7r9wnq:35dg97","userID":"100009989478237","retry":false,"status":1}],["require_cond_exposure_logging",{"identifier":"Aa1dwlU3uTJiu8FhCzuqIoDEe8uKMR6c1u8e6z9hsVbtv1V3O4undFtVCyyx_iQ4G862a_iW4baBbNHYrl8PIJs"},1563876032899.11,0,{"webSessionId":":7r9wnq:35dg97","userID":"100009989478237","retry":false,"status":1}],["require_cond_exposure_logging",{"identifier":"Aa1dwlU3uTJiu8FhCzuqIoDEe8uKMR6c1u8e6z9hsVbtv1V3O4undFtVCyyx_iQ4G862a_iW4baBbNHYrl8PIJs"},1563876032899.115,0,{"webSessionId":":7r9wnq:35dg97","userID":"100009989478237","retry":false,"status":1}],["require_cond_exposure_logging",{"identifier":"Aa1dwlU3uTJiu8FhCzuqIoDEe8uKMR6c1u8e6z9hsVbtv1V3O4undFtVCyyx_iQ4G862a_iW4baBbNHYrl8PIJs"},1563876032899.115,0,{"webSessionId":":7r9wnq:35dg97","userID":"100009989478237","retry":false,"status":1}],["require_cond_exposure_logging",{"identifier":"Aa1dwlU3uTJiu8FhCzuqIoDEe8uKMR6c1u8e6z9hsVbtv1V3O4undFtVCyyx_iQ4G862a_iW4baBbNHYrl8PIJs"},1563876032899.12,0,{"webSessionId":":7r9wnq:35dg97","userID":"100009989478237","retry":false,"status":1}],["require_cond_exposure_logging",{"identifier":"Aa1dwlU3uTJiu8FhCzuqIoDEe8uKMR6c1u8e6z9hsVbtv1V3O4undFtVCyyx_iQ4G862a_iW4baBbNHYrl8PIJs"},1563876032899.12,0,{"webSessionId":":7r9wnq:35dg97","userID":"100009989478237","retry":false,"status":1}],["require_cond_exposure_logging",{"identifier":"Aa1dwlU3uTJiu8FhCzuqIoDEe8uKMR6c1u8e6z9hsVbtv1V3O4undFtVCyyx_iQ4G862a_iW4baBbNHYrl8PIJs"},1563876032899.13,0,{"webSessionId":":7r9wnq:35dg97","userID":"100009989478237","retry":false,"status":1}],["require_cond_exposure_logging",{"identifier":"Aa1dwlU3uTJiu8FhCzuqIoDEe8uKMR6c1u8e6z9hsVbtv1V3O4undFtVCyyx_iQ4G862a_iW4baBbNHYrl8PIJs"},1563876032899.13,0,{"webSessionId":":7r9wnq:35dg97","userID":"100009989478237","retry":false,"status":1}],["require_cond_exposure_logging",{"identifier":"Aa1dwlU3uTJiu8FhCzuqIoDEe8uKMR6c1u8e6z9hsVbtv1V3O4undFtVCyyx_iQ4G862a_iW4baBbNHYrl8PIJs"},1563876032899.135,0,{"webSessionId":":7r9wnq:35dg97","userID":"100009989478237","retry":false,"status":1}],["require_cond_exposure_logging",{"identifier":"Aa1dwlU3uTJiu8FhCzuqIoDEe8uKMR6c1u8e6z9hsVbtv1V3O4undFtVCyyx_iQ4G862a_iW4baBbNHYrl8PIJs"},1563876032899.14,0,{"webSessionId":":7r9wnq:35dg97","userID":"100009989478237","retry":false,"status":1}],["require_cond_exposure_logging",{"identifier":"Aa1dwlU3uTJiu8FhCzuqIoDEe8uKMR6c1u8e6z9hsVbtv1V3O4undFtVCyyx_iQ4G862a_iW4baBbNHYrl8PIJs"},1563876032899.145,0,{"webSessionId":":7r9wnq:35dg97","userID":"100009989478237","retry":false,"status":1}],["require_cond_exposure_logging",{"identifier":"Aa1dwlU3uTJiu8FhCzuqIoDEe8uKMR6c1u8e6z9hsVbtv1V3O4undFtVCyyx_iQ4G862a_iW4baBbNHYrl8PIJs"},1563876032899.15,0,{"webSessionId":":7r9wnq:35dg97","userID":"100009989478237","retry":false,"status":1}],["require_cond_exposure_logging",{"identifier":"Aa1dwlU3uTJiu8FhCzuqIoDEe8uKMR6c1u8e6z9hsVbtv1V3O4undFtVCyyx_iQ4G862a_iW4baBbNHYrl8PIJs"},1563876032899.155,0,{"webSessionId":":7r9wnq:35dg97","userID":"100009989478237","retry":false,"status":1}],["require_cond_exposure_logging",{"identifier":"Aa1dwlU3uTJiu8FhCzuqIoDEe8uKMR6c1u8e6z9hsVbtv1V3O4undFtVCyyx_iQ4G862a_iW4baBbNHYrl8PIJs"},1563876032899.155,0,{"webSessionId":":7r9wnq:35dg97","userID":"100009989478237","retry":false,"status":1}],["require_cond_exposure_logging",{"identifier":"Aa1dwlU3uTJiu8FhCzuqIoDEe8uKMR6c1u8e6z9hsVbtv1V3O4undFtVCyyx_iQ4G862a_iW4baBbNHYrl8PIJs"},1563876032899.16,0,{"webSessionId":":7r9wnq:35dg97","userID":"100009989478237","retry":false,"status":1}],["require_cond_exposure_logging",{"identifier":"Aa1dwlU3uTJiu8FhCzuqIoDEe8uKMR6c1u8e6z9hsVbtv1V3O4undFtVCyyx_iQ4G862a_iW4baBbNHYrl8PIJs"},1563876032899.165,0,{"webSessionId":":7r9wnq:35dg97","userID":"100009989478237","retry":false,"status":1}],["require_cond_exposure_logging",{"identifier":"Aa1dwlU3uTJiu8FhCzuqIoDEe8uKMR6c1u8e6z9hsVbtv1V3O4undFtVCyyx_iQ4G862a_iW4baBbNHYrl8PIJs"},1563876032899.17,0,{"webSessionId":":7r9wnq:35dg97","userID":"100009989478237","retry":false,"status":1}],["require_cond_exposure_logging",{"identifier":"Aa1dwlU3uTJiu8FhCzuqIoDEe8uKMR6c1u8e6z9hsVbtv1V3O4undFtVCyyx_iQ4G862a_iW4baBbNHYrl8PIJs"},1563876032899.17,0,{"webSessionId":":7r9wnq:35dg97","userID":"100009989478237","retry":false,"status":1}],["require_cond_exposure_logging",{"identifier":"Aa1dwlU3uTJiu8FhCzuqIoDEe8uKMR6c1u8e6z9hsVbtv1V3O4undFtVCyyx_iQ4G862a_iW4baBbNHYrl8PIJs"},1563876032899.18,0,{"webSessionId":":7r9wnq:35dg97","userID":"100009989478237","retry":false,"status":1}],["require_cond_exposure_logging",{"identifier":"Aa1dwlU3uTJiu8FhCzuqIoDEe8uKMR6c1u8e6z9hsVbtv1V3O4undFtVCyyx_iQ4G862a_iW4baBbNHYrl8PIJs"},1563876032899.18,0,{"webSessionId":":7r9wnq:35dg97","userID":"100009989478237","retry":false,"status":1}],["require_cond_exposure_logging",{"identifier":"Aa1dwlU3uTJiu8FhCzuqIoDEe8uKMR6c1u8e6z9hsVbtv1V3O4undFtVCyyx_iQ4G862a_iW4baBbNHYrl8PIJs"},1563876032899.185,0,{"webSessionId":":7r9wnq:35dg97","userID":"100009989478237","retry":false,"status":1}],["require_cond_exposure_logging",{"identifier":"Aa1dwlU3uTJiu8FhCzuqIoDEe8uKMR6c1u8e6z9hsVbtv1V3O4undFtVCyyx_iQ4G862a_iW4baBbNHYrl8PIJs"},1563876032899.19,0,{"webSessionId":":7r9wnq:35dg97","userID":"100009989478237","retry":false,"status":1}],["require_cond_exposure_logging",{"identifier":"Aa1dwlU3uTJiu8FhCzuqIoDEe8uKMR6c1u8e6z9hsVbtv1V3O4undFtVCyyx_iQ4G862a_iW4baBbNHYrl8PIJs"},1563876032899.195,0,{"webSessionId":":7r9wnq:35dg97","userID":"100009989478237","retry":false,"status":1}],["require_cond_exposure_logging",{"identifier":"Aa1dwlU3uTJiu8FhCzuqIoDEe8uKMR6c1u8e6z9hsVbtv1V3O4undFtVCyyx_iQ4G862a_iW4baBbNHYrl8PIJs"},1563876032899.2,0,{"webSessionId":":7r9wnq:35dg97","userID":"100009989478237","retry":false,"status":1}],["require_cond_exposure_logging",{"identifier":"Aa1dwlU3uTJiu8FhCzuqIoDEe8uKMR6c1u8e6z9hsVbtv1V3O4undFtVCyyx_iQ4G862a_iW4baBbNHYrl8PIJs"},1563876032899.2,0,{"webSessionId":":7r9wnq:35dg97","userID":"100009989478237","retry":false,"status":1}],["require_cond_exposure_logging",{"identifier":"Aa1dwlU3uTJiu8FhCzuqIoDEe8uKMR6c1u8e6z9hsVbtv1V3O4undFtVCyyx_iQ4G862a_iW4baBbNHYrl8PIJs"},1563876032899.205,0,{"webSessionId":":7r9wnq:35dg97","userID":"100009989478237","retry":false,"status":1}],["require_cond_exposure_logging",{"identifier":"Aa1dwlU3uTJiu8FhCzuqIoDEe8uKMR6c1u8e6z9hsVbtv1V3O4undFtVCyyx_iQ4G862a_iW4baBbNHYrl8PIJs"},1563876032899.21,0,{"webSessionId":":7r9wnq:35dg97","userID":"100009989478237","retry":false,"status":1}],["require_cond_exposure_logging",{"identifier":"Aa1dwlU3uTJiu8FhCzuqIoDEe8uKMR6c1u8e6z9hsVbtv1V3O4undFtVCyyx_iQ4G862a_iW4baBbNHYrl8PIJs"},1563876032899.215,0,{"webSessionId":":7r9wnq:35dg97","userID":"100009989478237","retry":false,"status":1}],["require_cond_exposure_logging",{"identifier":"Aa1dwlU3uTJiu8FhCzuqIoDEe8uKMR6c1u8e6z9hsVbtv1V3O4undFtVCyyx_iQ4G862a_iW4baBbNHYrl8PIJs"},1563876032899.22,0,{"webSessionId":":7r9wnq:35dg97","userID":"100009989478237","retry":false,"status":1}],["require_cond_exposure_logging",{"identifier":"Aa1dwlU3uTJiu8FhCzuqIoDEe8uKMR6c1u8e6z9hsVbtv1V3O4undFtVCyyx_iQ4G862a_iW4baBbNHYrl8PIJs"},1563876032899.22,0,{"webSessionId":":7r9wnq:35dg97","userID":"100009989478237","retry":false,"status":1}],["require_cond_exposure_logging",{"identifier":"Aa1dwlU3uTJiu8FhCzuqIoDEe8uKMR6c1u8e6z9hsVbtv1V3O4undFtVCyyx_iQ4G862a_iW4baBbNHYrl8PIJs"},1563876032899.225,0,{"webSessionId":":7r9wnq:35dg97","userID":"100009989478237","retry":false,"status":1}],["require_cond_exposure_logging",{"identifier":"Aa1dwlU3uTJiu8FhCzuqIoDEe8uKMR6c1u8e6z9hsVbtv1V3O4undFtVCyyx_iQ4G862a_iW4baBbNHYrl8PIJs"},1563876032899.23,0,{"webSessionId":":7r9wnq:35dg97","userID":"100009989478237","retry":false,"status":1}],["require_cond_exposure_logging",{"identifier":"Aa1dwlU3uTJiu8FhCzuqIoDEe8uKMR6c1u8e6z9hsVbtv1V3O4undFtVCyyx_iQ4G862a_iW4baBbNHYrl8PIJs"},1563876032899.235,0,{"webSessionId":":7r9wnq:35dg97","userID":"100009989478237","retry":false,"status":1}],["require_cond_exposure_logging",{"identifier":"Aa1dwlU3uTJiu8FhCzuqIoDEe8uKMR6c1u8e6z9hsVbtv1V3O4undFtVCyyx_iQ4G862a_iW4baBbNHYrl8PIJs"},1563876032899.235,0,{"webSessionId":":7r9wnq:35dg97","userID":"100009989478237","retry":false,"status":1}],["require_cond_exposure_logging",{"identifier":"Aa1dwlU3uTJiu8FhCzuqIoDEe8uKMR6c1u8e6z9hsVbtv1V3O4undFtVCyyx_iQ4G862a_iW4baBbNHYrl8PIJs"},1563876032899.245,0,{"webSessionId":":7r9wnq:35dg97","userID":"100009989478237","retry":false,"status":1}],["require_cond_exposure_logging",{"identifier":"Aa1dwlU3uTJiu8FhCzuqIoDEe8uKMR6c1u8e6z9hsVbtv1V3O4undFtVCyyx_iQ4G862a_iW4baBbNHYrl8PIJs"},1563876032899.25,0,{"webSessionId":":7r9wnq:35dg97","userID":"100009989478237","retry":false,"status":1}],["require_cond_exposure_logging",{"identifier":"Aa1dwlU3uTJiu8FhCzuqIoDEe8uKMR6c1u8e6z9hsVbtv1V3O4undFtVCyyx_iQ4G862a_iW4baBbNHYrl8PIJs"},1563876032899.25,0,{"webSessionId":":7r9wnq:35dg97","userID":"100009989478237","retry":false,"status":1}],["require_cond_exposure_logging",{"identifier":"Aa1dwlU3uTJiu8FhCzuqIoDEe8uKMR6c1u8e6z9hsVbtv1V3O4undFtVCyyx_iQ4G862a_iW4baBbNHYrl8PIJs"},1563876032899.255,0,{"webSessionId":":7r9wnq:35dg97","userID":"100009989478237","retry":false,"status":1}],["require_cond_exposure_logging",{"identifier":"Aa1dwlU3uTJiu8FhCzuqIoDEe8uKMR6c1u8e6z9hsVbtv1V3O4undFtVCyyx_iQ4G862a_iW4baBbNHYrl8PIJs"},1563876032899.26,0,{"webSessionId":":7r9wnq:35dg97","userID":"100009989478237","retry":false,"status":1}],["require_cond_exposure_logging",{"identifier":"Aa1dwlU3uTJiu8FhCzuqIoDEe8uKMR6c1u8e6z9hsVbtv1V3O4undFtVCyyx_iQ4G862a_iW4baBbNHYrl8PIJs"},1563876032899.265,0,{"webSessionId":":7r9wnq:35dg97","userID":"100009989478237","retry":false,"status":1}],["require_cond_exposure_logging",{"identifier":"Aa1dwlU3uTJiu8FhCzuqIoDEe8uKMR6c1u8e6z9hsVbtv1V3O4undFtVCyyx_iQ4G862a_iW4baBbNHYrl8PIJs"},1563876032899.265,0,{"webSessionId":":7r9wnq:35dg97","userID":"100009989478237","retry":false,"status":1}],["require_cond_exposure_logging",{"identifier":"Aa1dwlU3uTJiu8FhCzuqIoDEe8uKMR6c1u8e6z9hsVbtv1V3O4undFtVCyyx_iQ4G862a_iW4baBbNHYrl8PIJs"},1563876032899.27,0,{"webSessionId":":7r9wnq:35dg97","userID":"100009989478237","retry":false,"status":1}],["require_cond_exposure_logging",{"identifier":"Aa1dwlU3uTJiu8FhCzuqIoDEe8uKMR6c1u8e6z9hsVbtv1V3O4undFtVCyyx_iQ4G862a_iW4baBbNHYrl8PIJs"},1563876032899.275,0,{"webSessionId":":7r9wnq:35dg97","userID":"100009989478237","retry":false,"status":1}],["require_cond_exposure_logging",{"identifier":"Aa1dwlU3uTJiu8FhCzuqIoDEe8uKMR6c1u8e6z9hsVbtv1V3O4undFtVCyyx_iQ4G862a_iW4baBbNHYrl8PIJs"},1563876032899.28,0,{"webSessionId":":7r9wnq:35dg97","userID":"100009989478237","retry":false,"status":1}],["require_cond_exposure_logging",{"identifier":"Aa1dwlU3uTJiu8FhCzuqIoDEe8uKMR6c1u8e6z9hsVbtv1V3O4undFtVCyyx_iQ4G862a_iW4baBbNHYrl8PIJs"},1563876032899.285,0,{"webSessionId":":7r9wnq:35dg97","userID":"100009989478237","retry":false,"status":1}],["require_cond_exposure_logging",{"identifier":"Aa1dwlU3uTJiu8FhCzuqIoDEe8uKMR6c1u8e6z9hsVbtv1V3O4undFtVCyyx_iQ4G862a_iW4baBbNHYrl8PIJs"},1563876032899.29,0,{"webSessionId":":7r9wnq:35dg97","userID":"100009989478237","retry":false,"status":1}],["require_cond_exposure_logging",{"identifier":"Aa1dwlU3uTJiu8FhCzuqIoDEe8uKMR6c1u8e6z9hsVbtv1V3O4undFtVCyyx_iQ4G862a_iW4baBbNHYrl8PIJs"},1563876032899.29,0,{"webSessionId":":7r9wnq:35dg97","userID":"100009989478237","retry":false,"status":1}],["require_cond_exposure_logging",{"identifier":"Aa1dwlU3uTJiu8FhCzuqIoDEe8uKMR6c1u8e6z9hsVbtv1V3O4undFtVCyyx_iQ4G862a_iW4baBbNHYrl8PIJs"},1563876032899.295,0,{"webSessionId":":7r9wnq:35dg97","userID":"100009989478237","retry":false,"status":1}],["require_cond_exposure_logging",{"identifier":"Aa1dwlU3uTJiu8FhCzuqIoDEe8uKMR6c1u8e6z9hsVbtv1V3O4undFtVCyyx_iQ4G862a_iW4baBbNHYrl8PIJs"},1563876032899.3,0,{"webSessionId":":7r9wnq:35dg97","userID":"100009989478237","retry":false,"status":1}],["require_cond_exposure_logging",{"identifier":"Aa1dwlU3uTJiu8FhCzuqIoDEe8uKMR6c1u8e6z9hsVbtv1V3O4undFtVCyyx_iQ4G862a_iW4baBbNHYrl8PIJs"},1563876032899.305,0,{"webSessionId":":7r9wnq:35dg97","userID":"100009989478237","retry":false,"status":1}],["require_cond_exposure_logging",{"identifier":"Aa1dwlU3uTJiu8FhCzuqIoDEe8uKMR6c1u8e6z9hsVbtv1V3O4undFtVCyyx_iQ4G862a_iW4baBbNHYrl8PIJs"},1563876032899.31,0,{"webSessionId":":7r9wnq:35dg97","userID":"100009989478237","retry":false,"status":1}],["require_cond_exposure_logging",{"identifier":"Aa1dwlU3uTJiu8FhCzuqIoDEe8uKMR6c1u8e6z9hsVbtv1V3O4undFtVCyyx_iQ4G862a_iW4baBbNHYrl8PIJs"},1563876032899.315,0,{"webSessionId":":7r9wnq:35dg97","userID":"100009989478237","retry":false,"status":1}],["require_cond_exposure_logging",{"identifier":"Aa1dwlU3uTJiu8FhCzuqIoDEe8uKMR6c1u8e6z9hsVbtv1V3O4undFtVCyyx_iQ4G862a_iW4baBbNHYrl8PIJs"},1563876032899.315,0,{"webSessionId":":7r9wnq:35dg97","userID":"100009989478237","retry":false,"status":1}],["require_cond_exposure_logging",{"identifier":"Aa1dwlU3uTJiu8FhCzuqIoDEe8uKMR6c1u8e6z9hsVbtv1V3O4undFtVCyyx_iQ4G862a_iW4baBbNHYrl8PIJs"},1563876032899.32,0,{"webSessionId":":7r9wnq:35dg97","userID":"100009989478237","retry":false,"status":1}],["require_cond_exposure_logging",{"identifier":"Aa1dwlU3uTJiu8FhCzuqIoDEe8uKMR6c1u8e6z9hsVbtv1V3O4undFtVCyyx_iQ4G862a_iW4baBbNHYrl8PIJs"},1563876032899.325,0,{"webSessionId":":7r9wnq:35dg97","userID":"100009989478237","retry":false,"status":1}],["require_cond_exposure_logging",{"identifier":"Aa1dwlU3uTJiu8FhCzuqIoDEe8uKMR6c1u8e6z9hsVbtv1V3O4undFtVCyyx_iQ4G862a_iW4baBbNHYrl8PIJs"},1563876032899.33,0,{"webSessionId":":7r9wnq:35dg97","userID":"100009989478237","retry":false,"status":1}],["require_cond_exposure_logging",{"identifier":"Aa1dwlU3uTJiu8FhCzuqIoDEe8uKMR6c1u8e6z9hsVbtv1V3O4undFtVCyyx_iQ4G862a_iW4baBbNHYrl8PIJs"},1563876032899.335,0,{"webSessionId":":7r9wnq:35dg97","userID":"100009989478237","retry":false,"status":1}],["require_cond_exposure_logging",{"identifier":"Aa1dwlU3uTJiu8FhCzuqIoDEe8uKMR6c1u8e6z9hsVbtv1V3O4undFtVCyyx_iQ4G862a_iW4baBbNHYrl8PIJs"},1563876032899.335,0,{"webSessionId":":7r9wnq:35dg97","userID":"100009989478237","retry":false,"status":1}],["require_cond_exposure_logging",{"identifier":"Aa1dwlU3uTJiu8FhCzuqIoDEe8uKMR6c1u8e6z9hsVbtv1V3O4undFtVCyyx_iQ4G862a_iW4baBbNHYrl8PIJs"},1563876032899.345,0,{"webSessionId":":7r9wnq:35dg97","userID":"100009989478237","retry":false,"status":1}],["require_cond_exposure_logging",{"identifier":"Aa1dwlU3uTJiu8FhCzuqIoDEe8uKMR6c1u8e6z9hsVbtv1V3O4undFtVCyyx_iQ4G862a_iW4baBbNHYrl8PIJs"},1563876032899.345,0,{"webSessionId":":7r9wnq:35dg97","userID":"100009989478237","retry":false,"status":1}],["require_cond_exposure_logging",{"identifier":"Aa1dwlU3uTJiu8FhCzuqIoDEe8uKMR6c1u8e6z9hsVbtv1V3O4undFtVCyyx_iQ4G862a_iW4baBbNHYrl8PIJs"},1563876032899.35,0,{"webSessionId":":7r9wnq:35dg97","userID":"100009989478237","retry":false,"status":1}],["require_cond_exposure_logging",{"identifier":"Aa1dwlU3uTJiu8FhCzuqIoDEe8uKMR6c1u8e6z9hsVbtv1V3O4undFtVCyyx_iQ4G862a_iW4baBbNHYrl8PIJs"},1563876032899.35,0,{"webSessionId":":7r9wnq:35dg97","userID":"100009989478237","retry":false,"status":1}],["require_cond_exposure_logging",{"identifier":"Aa1dwlU3uTJiu8FhCzuqIoDEe8uKMR6c1u8e6z9hsVbtv1V3O4undFtVCyyx_iQ4G862a_iW4baBbNHYrl8PIJs"},1563876032899.36,0,{"webSessionId":":7r9wnq:35dg97","userID":"100009989478237","retry":false,"status":1}],["require_cond_exposure_logging",{"identifier":"Aa1dwlU3uTJiu8FhCzuqIoDEe8uKMR6c1u8e6z9hsVbtv1V3O4undFtVCyyx_iQ4G862a_iW4baBbNHYrl8PIJs"},1563876032899.365,0,{"webSessionId":":7r9wnq:35dg97","userID":"100009989478237","retry":false,"status":1}],["require_cond_exposure_logging",{"identifier":"Aa1dwlU3uTJiu8FhCzuqIoDEe8uKMR6c1u8e6z9hsVbtv1V3O4undFtVCyyx_iQ4G862a_iW4baBbNHYrl8PIJs"},1563876032899.37,0,{"webSessionId":":7r9wnq:35dg97","userID":"100009989478237","retry":false,"status":1}],["require_cond_exposure_logging",{"identifier":"Aa1dwlU3uTJiu8FhCzuqIoDEe8uKMR6c1u8e6z9hsVbtv1V3O4undFtVCyyx_iQ4G862a_iW4baBbNHYrl8PIJs"},1563876032899.37,0,{"webSessionId":":7r9wnq:35dg97","userID":"100009989478237","retry":false,"status":1}],["require_cond_exposure_logging",{"identifier":"Aa1dwlU3uTJiu8FhCzuqIoDEe8uKMR6c1u8e6z9hsVbtv1V3O4undFtVCyyx_iQ4G862a_iW4baBbNHYrl8PIJs"},1563876032899.375,0,{"webSessionId":":7r9wnq:35dg97","userID":"100009989478237","retry":false,"status":1}],["require_cond_exposure_logging",{"identifier":"Aa1dwlU3uTJiu8FhCzuqIoDEe8uKMR6c1u8e6z9hsVbtv1V3O4undFtVCyyx_iQ4G862a_iW4baBbNHYrl8PIJs"},1563876032899.38,0,{"webSessionId":":7r9wnq:35dg97","userID":"100009989478237","retry":false,"status":1}],["require_cond_exposure_logging",{"identifier":"Aa1dwlU3uTJiu8FhCzuqIoDEe8uKMR6c1u8e6z9hsVbtv1V3O4undFtVCyyx_iQ4G862a_iW4baBbNHYrl8PIJs"},1563876032899.385,0,{"webSessionId":":7r9wnq:35dg97","userID":"100009989478237","retry":false,"status":1}],["require_cond_exposure_logging",{"identifier":"Aa1d8≥U˘wlU3uTJiu8FhCzuqIoDEe8uKMR6c1u8e6z9hsVbtv1V3O4undFtVCyyx_iQ4G862a_iW4baBbNHYrl8PIJs"},1563876032899.385,0,{"webSessionId":":7r9wnq:35dg97","userID":"100009989478237","retry":false,"status":1}],["require_cond_exposure_logging",{"identifier":"Aa1dwlU3uTJiu8FhCzuqIoDEe8uKMR6c1u8e6z9hsVbtv1V3O4undFtVCyyx_iQ4G862a_iW4baBbNHYrl8PIJs"},1563876032899.39,0,{"webSessionId":":7r9wnq:35dg97","userID":"100009989478237","retry":false,"status":1}],["require_cond_exposure_logging",{"identifier":"Aa1dwlU3uTJiu8FhCzuqIoDEe8uKMR6c1u8e6z9hsVbtv1V3O4undFtVCyyx_iQ4G862a_iW4baBbNHYrl8PIJs"},1563876032899.395,0,{"webSessionId":":7r9wnq:35dg97","userID":"100009989478237","retry":false,"status":1}],["require_cond_exposure_logging",{"identifier":"Aa1dwlU3uTJiu8FhCzuqIoDEe8uKMR6c1u8e6z9hsVbtv1V3O4undFtVCyyx_iQ4G862a_iW4baBbNHYrl8PIJs"},1563876032899.4,0,{"webSessionId":":7r9wnq:35dg97","userID":"100009989478237","retry":false,"status":1}],["require_cond_exposure_logging",{"identifier":"Aa1dwlU3uTJiu8FhCzuqIoDEe8uKMR6c1u8e6z9hsVbtv1V3O4undFtVCyyx_iQ4G862a_iW4baBbNHYrl8PIJs"},1563876032899.4,0,{"webSessionId":":7r9wnq:35dg97","userID":"100009989478237","retry":false,"status":1}],["require_cond_exposure_logging",{"identifier":"Aa1dwlU3uTJiu8FhCzuqIoDEe8uKMR6c1u8e6z9hsVbtv1V3O4undFtVCyyx_iQ4G862a_iW4baBbNHYrl8PIJs"},1563876032899.405,0,{"webSessionId":":7r9wnq:35dg97","userID":"100009989478237","retry":false,"status":1}],["require_cond_exposure_logging",{"identifier":"Aa1dwlU3uTJiu8FhCzuqIoDEe8uKMR6c1u8e6z9hsVbtv1V3O4undFtVCyyx_iQ4G862a_iW4baBbNHYrl8PIJs"},1563876032899.415,0,{"webSessionId":":7r9wnq:35dg97","userID":"100009989478237","retry":false,"status":1}],["require_cond_exposure_logging",{"identifier":"Aa1dwlU3uTJiu8FhCzuqIoDEe8uKMR6c1u8e6z9hsVbtv1V3O4undFtVCyyx_iQ4G862a_iW4baBbNHYrl8PIJs"},1563876032899.415,0,{"webSessionId":":7r9wnq:35dg97","userID":"100009989478237","retry":false,"status":1}],["require_cond_exposure_logging",{"identifier":"Aa1dwlU3uTJiu8FhCzuqIoDEe8uKMR6c1u8e6z9hsVbtv1V3O4undFtVCyyx_iQ4G862a_iW4baBbNHYrl8PIJs"},1563876032899.42,0,{"webSessionId":":7r9wnq:35dg97","userID":"100009989478237","retry":false,"status":1}],["require_cond_exposure_logging",{"identifier":"Aa1dwlU3uTJiu8FhCzuqIoDEe8uKMR6c1u8e6z9hsVbtv1V3O4undFtVCyyx_iQ4G862a_iW4baBbNHYrl8PIJs"},1563876032899.425,0,{"webSessionId":":7r9wnq:35dg97","userID":"100009989478237","retry":false,"status":1}],["require_cond_exposure_logging",{"identifier":"Aa1dwlU3uTJiu8FhCzuqIoDEe8uKMR6c1u8e6z9hsVbtv1V3O4undFtVCyyx_iQ4G862a_iW4baBbNHYrl8PIJs"},1563876032899.425,0,{"webSessionId":":7r9wnq:35dg97","userID":"100009989478237","retry":false,"status":1}],["require_cond_exposure_logging",{"identifier":"Aa1dwlU3uTJiu8FhCzuqIoDEe8uKMR6c1u8e6z9hsVbtv1V3O4undFtVCyyx_iQ4G862a_iW4baBbNHYrl8PIJs"},1563876032899.43,0,{"webSessionId":":7r9wnq:35dg97","userID":"100009989478237","retry":false,"status":1}],["require_cond_exposure_logging",{"identifier":"Aa1dwlU3uTJiu8FhCzuqIoDEe8uKMR6c1u8e6z9hsVbtv1V3O4undFtVCyyx_iQ4G862a_iW4baBbNHYrl8PIJs"},1563876032899.435,0,{"webSessionId":":7r9wnq:35dg97","userID":"100009989478237","retry":false,"status":1}],["require_cond_exposure_logging",{"identifier":"Aa1dwlU3uTJiu8FhCzuqIoDEe8uKMR6c1u8e6z9hsVbtv1V3O4undFtVCyyx_iQ4G862a_iW4baBbNHYrl8PIJs"},1563876032899.44,0,{"webSessionId":":7r9wnq:35dg97","userID":"100009989478237","retry":false,"status":1}],["require_cond_exposure_logging",{"identifier":"Aa1dwlU3uTJiu8FhCzuqIoDEe8uKMR6c1u8e6z9hsVbtv1V3O4undFtVCyyx_iQ4G862a_iW4baBbNHYrl8PIJs"},1563876032899.445,0,{"webSessionId":":7r9wnq:35dg97","userID":"100009989478237","retry":false,"status":1}],["require_cond_exposure_logging",{"identifier":"Aa1dwlU3uTJiu8FhCzuqIoDEe8uKMR6c1u8e6z9hsVbtv1V3O4undFtVCyyx_iQ4G862a_iW4baBbNHYrl8PIJs"},1563876032899.445,0,{"webSessionId":":7r9wnq:35dg97","userID":"100009989478237","retry":false,"status":1}],["require_cond_exposure_logging",{"identifier":"Aa1dwlU3uTJiu8FhCzuqIoDEe8uKMR6c1u8e6z9hsVbtv1V3O4undFtVCyyx_iQ4G862a_iW4baBbNHYrl8PIJs"},1563876032899.455,0,{"webSessionId":":7r9wnq:35dg97","userID":"100009989478237","retry":false,"status":1}],["require_cond_exposure_logging",{"identifier":"Aa1dwlU3uTJiu8FhCzuqIoDEe8uKMR6c1u8e6z9hsVbtv1V3O4undFtVCyyx_iQ4G862a_iW4baBbNHYrl8PIJs"},1563876032899.455,0,{"webSessionId":":7r9wnq:35dg97","userID":"100009989478237","retry":false,"status":1}],["require_cond_exposure_logging",{"identifier":"Aa1dwlU3uTJiu8FhCzuqIoDEe8uKMR6c1u8e6z9hsVbtv1V3O4undFtVCyyx_iQ4G862a_iW4baBbNHYrl8PIJs"},1563876032899.46,0,{"webSessionId":":7r9wnq:35dg97","userID":"100009989478237","retry":false,"status":1}],["require_cond_exposure_logging",{"identifier":"Aa1dwlU3uTJiu8FhCzuqIoDEe8uKMR6c1u8e6z9hsVbtv1V3O4undFtVCyyx_iQ4G862a_iW4baBbNHYrl8PIJs"},1563876032899.46,0,{"webSessionId":":7r9wnq:35dg97","userID":"100009989478237","retry":false,"status":1}],["require_cond_exposure_logging",{"identifier":"Aa1dwlU3uTJiu8FhCzuqIoDEe8uKMR6c1u8e6z9hsVbtv1V3O4undFtVCyyx_iQ4G862a_iW4baBbNHYrl8PIJs"},1563876032899.465,0,{"webSessionId":":7r9wnq:35dg97","userID":"100009989478237","retry":false,"status":1}],["require_cond_exposure_logging",{"identifier":"Aa1dwlU3uTJiu8FhCzuqIoDEe8uKMR6c1u8e6z9hsVbtv1V3O4undFtVCyyx_iQ4G862a_iW4baBbNHYrl8PIJs"},1563876032899.475,0,{"webSessionId":":7r9wnq:35dg97","userID":"100009989478237","retry":false,"status":1}],["require_cond_exposure_logging",{"identifier":"Aa1dwlU3uTJiu8FhCzuqIoDEe8uKMR6c1u8e6z9hsVbtv1V3O4undFtVCyyx_iQ4G862a_iW4baBbNHYrl8PIJs"},1563876032899.475,0,{"webSessionId":":7r9wnq:35dg97","userID":"100009989478237","retry":false,"status":1}],["require_cond_exposure_logging",{"identifier":"Aa1dwlU3uTJiu8FhCzuqIoDEe8uKMR6c1u8e6z9hsVbtv1V3O4undFtVCyyx_iQ4G862a_iW4baBbNHYrl8PIJs"},1563876032899.64,0,{"webSessionId":":7r9wnq:35dg97","userID":"100009989478237","retry":false,"status":1}],["require_cond_exposure_logging",{"identifier":"Aa1dwlU3uTJiu8FhCzuqIoDEe8uKMR6c1u8e6z9hsVbtv1V3O4undFtVCyyx_iQ4G862a_iW4baBbNHYrl8PIJs"},1563876032899.64,0,{"webSessionId":":7r9wnq:35dg97","userID":"100009989478237","retry":false,"status":1}],["require_cond_exposure_logging",{"identifier":"Aa1dwlU3uTJiu8FhCzuqIoDEe8uKMR6c1u8e6z9hsVbtv1V3O4undFtVCyyx_iQ4G862a_iW4baBbNHYrl8PIJs"},1563876032899.65,0,{"webSessionId":":7r9wnq:35dg97","userID":"100009989478237","retry":false,"status":1}],["require_cond_exposure_logging",{"identifier":"Aa1dwlU3uTJiu8FhCzuqIoDEe8uKMR6c1u8e6z9hsVbtv1V3O4undFtVCyyx_iQ4G862a_iW4baBbNHYrl8PIJs"},1563876032899.65,0,{"webSessionId":":7r9wnq:35dg97","userID":"100009989478237","retry":false,"status":1}],["require_cond_exposure_logging",{"identifier":"Aa1dwlU3uTJiu8FhCzuqIoDEe8uKMR6c1u8e6z9hsVbtv1V3O4undFtVCyyx_iQ4G862a_iW4baBbNHYrl8PIJs"},1563876032899.655,0,{"webSessionId":":7r9wnq:35dg97","userID":"100009989478237","retry":false,"status":1}],["require_cond_exposure_logging",{"identifier":"Aa1dwlU3uTJiu8FhCzuqIoDEe8uKMR6c1u8e6z9hsVbtv1V3O4undFtVCyyx_iQ4G862a_iW4baBbNHYrl8PIJs"},1563876032899.66,0,{"webSessionId":":7r9wnq:35dg97","userID":"100009989478237","retry":false,"status":1}],["require_cond_exposure_logging",{"identifier":"Aa1dwlU3uTJiu8FhCzuqIoDEe8uKMR6c1u8e6z9hsVbtv1V3O4undFtVCyyx_iQ4G862a_iW4baBbNHYrl8PIJs"},1563876032899.66,0,{"webSessionId":":7r9wnq:35dg97","userID":"100009989478237","retry":false,"status":1}],["require_cond_exposure_logging",{"identifier":"Aa1dwlU3uTJiu8FhCzuqIoDEe8uKMR6c1u8e6z9hsVbtv1V3O4undFtVCyyx_iQ4G862a_iW4baBbNHYrl8PIJs"},1563876032899.67,0,{"webSessionId":":7r9wnq:35dg97","userID":"100009989478237","retry":false,"status":1}],["require_cond_exposure_logging",{"identifier":"Aa1dwlU3uTJiu8FhCzuqIoDEe8uKMR6c1u8e6z9hsVbtv1V3O4undFtVCyyx_iQ4G862a_iW4baBbNHYrl8PIJs"},1563876032899.67,0,{"webSessionId":":7r9wnq:35dg97","userID":"100009989478237","retry":false,"status":1}],["require_cond_exposure_logging",{"identifier":"Aa1dwlU3uTJiu8FhCzuqIoDEe8uKMR6c1u8e6z9hsVbtv1V3O4undFtVCyyx_iQ4G862a_iW4baBbNHYrl8PIJs"},1563876032899.675,0,{"webSessionId":":7r9wnq:35dg97","userID":"100009989478237","retry":false,"status":1}],["require_cond_exposure_logging",{"identifier":"Aa1dwlU3uTJiu8FhCzuqIoDEe8uKMR6c1u8e6z9hsVbtv1V3O4undFtVCyyx_iQ4G862a_iW4baBbNHYrl8PIJs"},1563876032899.68,0,{"webSessionId":":7r9wnq:35dg97","userID":"100009989478237","retry":false,"status":1}],["require_cond_exposure_logging",{"identifier":"Aa1dwlU3uTJiu8FhCzuqIoDEe8uKMR6c1u8e6z9hsVbtv1V3O4undFtVCyyx_iQ4G862a_iW4baBbNHYrl8PIJs"},1563876032899.685,0,{"webSessionId":":7r9wnq:35dg97","userID":"100009989478237","retry":false,"status":1}],["require_cond_exposure_logging",{"identifier":"Aa1dwlU3uTJiu8FhCzuqIoDEe8uKMR6c1u8e6z9hsVbtv1V3O4undFtVCyyx_iQ4G862a_iW4baBbNHYrl8PIJs"},1563876032899.69,0,{"webSessionId":":7r9wnq:35dg97","userID":"100009989478237","retry":false,"status":1}],["require_cond_exposure_logging",{"identifier":"Aa1dwlU3uTJiu8FhCzuqIoDEe8uKMR6c1u8e6z9hsVbtv1V3O4undFtVCyyx_iQ4G862a_iW4baBbNHYrl8PIJs"},1563876032899.69,0,{"webSessionId":":7r9wnq:35dg97","userID":"100009989478237","retry":false,"status":1}],["require_cond_exposure_logging",{"identifier":"Aa1dwlU3uTJiu8FhCzuqIoDEe8uKMR6c1u8e6z9hsVbtv1V3O4undFtVCyyx_iQ4G862a_iW4baBbNHYrl8PIJs"},1563876032899.695,0,{"webSessionId":":7r9wnq:35dg97","userID":"100009989478237","retry":false,"status":1}],["require_cond_exposure_logging",{"identifier":"Aa1dwlU3uTJiu8FhCzuqIoDEe8uKMR6c1u8e6z9hsVbtv1V3O4undFtVCyyx_iQ4G862a_iW4baBbNHYrl8PIJs"},1563876032899.7,0,{"webSessionId":":7r9wnq:35dg97","userID":"100009989478237","retry":false,"status":1}],["require_cond_exposure_logging",{"identifier":"Aa1dwlU3uTJiu8FhCzuqIoDEe8uKMR6c1u8e6z9hsVbtv1V3O4undFtVCyyx_iQ4G862a_iW4baBbNHYrl8PIJs"},1563876032899.7,0,{"webSessionId":":7r9wnq:35dg97","userID":"100009989478237","retry":false,"status":1}],["require_cond_exposure_logging",{"identifier":"Aa1dwlU3uTJiu8FhCzuqIoDEe8uKMR6c1u8e6z9hsVbtv1V3O4undFtVCyyx_iQ4G862a_iW4baBbNHYrl8PIJs"},1563876032899.71,0,{"webSessionId":":7r9wnq:35dg97","userID":"100009989478237","retry":false,"status":1}],["require_cond_exposure_logging",{"identifier":"Aa1dwlU3uTJiu8FhCzuqIoDEe8uKMR6c1u8e6z9hsVbtv1V3O4undFtVCyyx_iQ4G862a_iW4baBbNHYrl8PIJs"},1563876032899.71,0,{"webSessionId":":7r9wnq:35dg97","userID":"100009989478237","retry":false,"status":1}],["require_cond_exposure_logging",{"identifier":"Aa1dwlU3uTJiu8FhCzuqIoDEe8uKMR6c1u8e6z9hsVbtv1V3O4undFtVCyyx_iQ4G862a_iW4baBbNHYrl8PIJs"},1563876032899.715,0,{"webSessionId":":7r9wnq:35dg97","userID":"100009989478237","retry":false,"status":1}],["require_cond_exposure_logging",{"identifier":"Aa1dwlU3uTJiu8FhCzuqIoDEe8uKMR6c1u8e6z9hsVbtv1V3O4undFtVCyyx_iQ4G862a_iW4baBbNHYrl8PIJs"},1563876032899.72,0,{"webSessionId":":7r9wnq:35dg97","userID":"100009989478237","retry":false,"status":1}],["require_cond_exposure_logging",{"identifier":"Aa1dwlU3uTJiu8FhCzuqIoDEe8uKMR6c1u8e6z9hsVbtv1V3O4undFtVCyyx_iQ4G862a_iW4baBbNHYrl8PIJs"},1563876032899.725,0,{"webSessionId":":7r9wnq:35dg97","userID":"100009989478237","retry":false,"status":1}],["require_cond_exposure_logging",{"identifier":"Aa1dwlU3uTJiu8FhCzuqIoDEe8uKMR6c1u8e6z9hsVbtv1V3O4undFtVCyyx_iQ4G862a_iW4baBbNHYrl8PIJs"},1563876032899.725,0,{"webSessionId":":7r9wnq:35dg97","userID":"100009989478237","retry":false,"status":1}],["require_cond_exposure_logging",{"identifier":"Aa1dwlU3uTJiu8FhCzuqIoDEe8uKMR6c1u8e6z9hsVbtv1V3O4undFtVCyyx_iQ4G862a_iW4baBbNHYrl8PIJs"},1563876032899.735,0,{"webSessionId":":7r9wnq:35dg97","userID":"100009989478237","retry":false,"status":1}],["require_cond_exposure_logging",{"identifier":"Aa1dwlU3uTJiu8FhCzuqIoDEe8uKMR6c1u8e6z9hsVbtv1V3O4undFtVCyyx_iQ4G862a_iW4baBbNHYrl8PIJs"},1563876032899.735,0,{"webSessionId":":7r9wnq:35dg97","userID":"100009989478237","retry":false,"status":1}],["require_cond_exposure_logging",{"identifier":"Aa1dwlU3uTJiu8FhCzuqIoDEe8uKMR6c1u8e6z9hsVbtv1V3O4undFtVCyyx_iQ4G862a_iW4baBbNHYrl8PIJs"},1563876032899.74,0,{"webSessionId":":7r9wnq:35dg97","userID":"100009989478237","retry":false,"status":1}],["require_cond_exposure_logging",{"identifier":"Aa1dwlU3uTJiu8FhCzuqIoDEe8uKMR6c1u8e6z9hsVbtv1V3O4undFtVCyyx_iQ4G862a_iW4baBbNHYrl8PIJs"},1563876032899.74,0,{"webSessionId":":7r9wnq:35dg97","userID":"100009989478237","retry":false,"status":1}],["require_cond_exposure_logging",{"identifier":"Aa1dwlU3uTJiu8FhCzuqIoDEe8uKMR6c1u8e6z9hsVbtv1V3O4undFtVCyyx_iQ4G862a_iW4baBbNHYrl8PIJs"},1563876032899.75,0,{"webSessionId":":7r9wnq:35dg97","userID":"100009989478237","retry":false,"status":1}],["require_cond_exposure_logging",{"identifier":"Aa1dwlU3uTJiu8FhCzuqIoDEe8uKMR6c1u8e6z9hsVbtv1V3O4undFtVCyyx_iQ4G862a_iW4baBbNHYrl8PIJs"},1563876032899.75,0,{"webSessionId":":7r9wnq:35dg97","userID":"100009989478237","retry":false,"status":1}],["require_cond_exposure_logging",{"identifier":"Aa1dwlU3uTJiu8FhCzuqIoDEe8uKMR6c1u8e6z9hsVbtv1V3O4undFtVCyyx_iQ4G862a_iW4baBbNHYrl8PIJs"},1563876032899.755,0,{"webSessionId":":7r9wnq:35dg97","userID":"100009989478237","retry":false,"status":1}],["require_cond_exposure_logging",{"identifier":"Aa1dwlU3uTJiu8FhCzuqIoDEe8uKMR6c1u8e6z9hsVbtv1V3O4undFtVCyyx_iQ4G862a_iW4baBbNHYrl8PIJs"},1563876032899.76,0,{"webSessionId":":7r9wnq:35dg97","userID":"100009989478237","retry":false,"status":1}],["require_cond_exposure_logging",{"identifier":"Aa1dwlU3uTJiu8FhCzuqIoDEe8uKMR6c1u8e6z9hsVbtv1V3O4undFtVCyyx_iQ4G862a_iW4baBbNHYrl8PIJs"},1563876032899.765,0,{"webSessionId":":7r9wnq:35dg97","userID":"100009989478237","retry":false,"status":1}],["require_cond_exposure_logging",{"identifier":"Aa1dwlU3uTJiu8FhCzuqIoDEe8uKMR6c1u8e6z9hsVbtv1V3O4undFtVCyyx_iQ4G862a_iW4baBbNHYrl8PIJs"},1563876032899.77,0,{"webSessionId":":7r9wnq:35dg97","userID":"100009989478237","retry":false,"status":1}],["require_cond_exposure_logging",{"identifier":"Aa1dwlU3uTJiu8FhCzuqIoDEe8uKMR6c1u8e6z9hsVbtv1V3O4undFtVCyyx_iQ4G862a_iW4baBbNHYrl8PIJs"},1563876032899.77,0,{"webSessionId":":7r9wnq:35dg97","userID":"100009989478237","retry":false,"status":1}],["require_cond_exposure_logging",